{"learner":{"attributes":{},"feature_names":[],"feature_types":[],"gradient_booster":{"model":{"cats":{"enc":[],"feature_segments":[],"sorted_idx":[]},"gbtree_model_param":{"num_parallel_tree":"1","num_trees":"150"},"iteration_indptr":[0,1,2,3,4,5,6,7,8,9,10,11,12,13,14,15,16,17,18,19,20,21,22,23,24,25,26,27,28,29,30,31,32,33,34,35,36,37,38,39,40,41,42,43,44,45,46,47,48,49,50,51,52,53,54,55,56,57,58,59,60,61,62,63,64,65,66,67,68,69,70,71,72,73,74,75,76,77,78,79,80,81,82,83,84,85,86,87,88,89,90,91,92,93,94,95,96,97,98,99,100,101,102,103,104,105,106,107,108,109,110,111,112,113,114,115,116,117,118,119,120,121,122,123,124,125,126,127,128,129,130,131,132,133,134,135,136,137,138,139,140,141,142,143,144,145,146,147,148,149,150],"tree_info":[0,0,0,0,0,0,0,0,0,0,0,0,0,0,0,0,0,0,0,0,0,0,0,0,0,0,0,0,0,0,0,0,0,0,0,0,0,0,0,0,0,0,0,0,0,0,0,0,0,0,0,0,0,0,0,0,0,0,0,0,0,0,0,0,0,0,0,0,0,0,0,0,0,0,0,0,0,0,0,0,0,0,0,0,0,0,0,0,0,0,0,0,0,0,0,0,0,0,0,0,0,0,0,0,0,0,0,0,0,0,0,0,0,0,0,0,0,0,0,0,0,0,0,0,0,0,0,0,0,0,0,0,0,0,0,0,0,0,0,0,0,0,0,0,0,0,0,0,0,0],"trees":[{"base_weights":[1.1509549E-2,-8.6810046E-1,8.411857E-1,-1.3612169E0,-2.2854893E-1,7.1242E-1,1.289256E0,-1.6794481E0,-3.417572E-1,-4.7956267E-1,5.952957E-1,5.5781686E-1,1.0317407E0,1.190347E0,7.5207375E-2,-2.0460396E0,-9.732796E-1,-5.4565954E-1,7.172433E-2,-7.1230036E-1,-2.8286579E-3,4.374519E-1,9.279736E-1,2.9939008E-1,6.5487623E-1,8.2949376E-1,1.1033806E0,1.0563601E0,1.2372341E0,-2.21812E0,-1.9624765E0,-1.2797447E0,-8.420697E-1,-8.605762E-1,-4.1426533E-1,-1.5219438E-1,3.9385918E-1,-1.0297283E0,-5.787209E-1,-3.0749974E-1,1.19001E-1,1.2563969E-1,5.4962397E-1,5.119694E-1,1.0817835E0,4.1823648E-2,4.05189E-1,4.0762377E-1,7.4472606E-1,5.8544993E-1,9.153019E-1,9.1379994E-1,1.1699802E0,1.1322092E0,9.5646065E-1,1.0914503E0,1.2832103E0,-1.16758466E-1,-9.95572E-2,-1.029672E-1,-8.8741384E-2,-7.6558426E-2,-4.283215E-2,-5.9029575E-2,-3.483977E-2,-5.8004875E-2,-3.5734255E-2,-3.6535457E-2,-1.4189536E-2,-2.9119289E-2,1.5014586E-3,-2.106279E-3,2.8098492E-2,-6.45158E-2,-4.5608606E-2,-4.644109E-2,-2.1607384E-2,-2.4143824E-2,-6.9650565E-4,-9.827264E-3,1.2451485E-2,-3.5015866E-3,2.4337795E-2,1.2040969E-2,3.307665E-2,5.7544243E-2,1.7761245E-2,3.795075E-2,5.8942642E-2,-1.9644741E-2,1.029473E-2,5.3694234E-3,2.5887478E-2,5.117813E-3,2.604512E-2,2.5820604E-2,4.170965E-2,3.0849902E-2,-1.5681585E-2,3.4877386E-2,4.976931E-2,2.843286E-2,5.1594265E-2,4.800839E-2,6.1786097E-2,-2.185612E-2,5.7210755E-2,4.1908123E-2,5.3865284E-2,4.261291E-2,5.8107525E-2,5.704204E-2,6.6799186E-2],"categories":[],"categories_nodes":[],"categories_segments":[],"categories_sizes":[],"default_left":[0,0,0,0,0,0,0,0,0,0,0,0,0,0,0,0,0,0,0,0,0,0,0,0,0,0,0,0,0,0,0,0,0,0,0,0,0,0,0,0,0,0,0,0,0,0,0,0,0,0,0,0,0,0,0,0,0,0,0,0,0,0,0,0,0,0,0,0,0,0,0,0,0,0,0,0,0,0,0,0,0,0,0,0,0,0,0,0,0,0,0,0,0,0,0,0,0,0,0,0,0,0,0,0,0,0,0,0,0,0,0,0,0],"id":0,"left_children":[1,3,5,7,9,11,13,15,17,19,21,23,25,27,-1,29,31,33,35,37,39,41,43,45,47,49,51,53,55,57,59,61,63,65,67,69,71,73,75,77,79,81,83,85,87,89,91,93,95,97,99,101,103,105,107,109,111,-1,-1,-1,-1,-1,-1,-1,-1,-1,-1,-1,-1,-1,-1,-1,-1,-1,-1,-1,-1,-1,-1,-1,-1,-1,-1,-1,-1,-1,-1,-1,-1,-1,-1,-1,-1,-1,-1,-1,-1,-1,-1,-1,-1,-1,-1,-1,-1,-1,-1,-1,-1,-1,-1,-1,-1],"loss_changes":[1.2784672E4,2.6813887E3,5.192119E2,1.5570137E3,7.66086E2,3.4523926E2,4.09563E1,9.451494E2,9.644026E1,3.1498633E2,4.502954E1,1.18242065E2,3.217627E1,7.375E0,0E0,3.0265625E1,4.9273804E1,3.1334991E1,2.7363174E1,8.029065E1,3.464133E1,2.0522278E1,1.7204453E1,3.5165237E1,7.593652E1,1.2058716E1,2.0187012E1,1.6835938E0,5.422241E0,1.6053467E1,2.595996E1,3.8416626E1,4.244037E1,8.983276E0,2.2184898E1,1.7578732E1,1.1420574E1,1.6091675E1,6.8612915E1,1.371859E1,2.7403824E1,1.1131344E1,1.4792786E1,7.283806E0,5.4253693E0,2.697245E1,3.0617294E1,3.1653824E1,5.0960815E1,4.7100334E0,7.034485E0,1.743692E1,1.594873E1,4.3078003E0,1.4417114E0,3.2499695E0,4.2476807E0,0E0,0E0,0E0,0E0,0E0,0E0,0E0,0E0,0E0,0E0,0E0,0E0,0E0,0E0,0E0,0E0,0E0,0E0,0E0,0E0,0E0,0E0,0E0,0E0,0E0,0E0,0E0,0E0,0E0,0E0,0E0,0E0,0E0,0E0,0E0,0E0,0E0,0E0,0E0,0E0,0E0,0E0,0E0,0E0,0E0,0E0,0E0,0E0,0E0,0E0,0E0,0E0,0E0,0E0,0E0,0E0],"parents":[2147483647,0,0,1,1,2,2,3,3,4,4,5,5,6,6,7,7,8,8,9,9,10,10,11,11,12,12,13,13,15,15,16,16,17,17,18,18,19,19,20,20,21,21,22,22,23,23,24,24,25,25,26,26,27,27,28,28,29,29,30,30,31,31,32,32,33,33,34,34,35,35,36,36,37,37,38,38,39,39,40,40,41,41,42,42,43,43,44,44,45,45,46,46,47,47,48,48,49,49,50,50,51,51,52,52,53,53,54,54,55,55,56,56],"right_children":[2,4,6,8,10,12,14,16,18,20,22,24,26,28,-1,30,32,34,36,38,40,42,44,46,48,50,52,54,56,58,60,62,64,66,68,70,72,74,76,78,80,82,84,86,88,90,92,94,96,98,100,102,104,106,108,110,112,-1,-1,-1,-1,-1,-1,-1,-1,-1,-1,-1,-1,-1,-1,-1,-1,-1,-1,-1,-1,-1,-1,-1,-1,-1,-1,-1,-1,-1,-1,-1,-1,-1,-1,-1,-1,-1,-1,-1,-1,-1,-1,-1,-1,-1,-1,-1,-1,-1,-1,-1,-1,-1,-1,-1,-1],"split_conditions":[2E0,1E0,1E0,1E0,1E0,1E0,1E0,1E0,1E0,1E0,1E0,1E0,1E0,1E0,7.5207375E-2,1E0,1E0,1E0,2E0,1E0,1E0,1E0,1E0,1E0,1E0,1E0,1E0,1.1E1,1E0,2E0,2E0,2E0,1E0,1E0,1E0,1E0,1E0,1E0,1E0,2E0,1E0,2E0,1E0,2.1E1,1E0,1E0,1E0,1E0,1E0,1.9E1,1E0,1E0,1E0,1.87E1,1E0,1E0,1E0,-1.16758466E-1,-9.95572E-2,-1.029672E-1,-8.8741384E-2,-7.6558426E-2,-4.283215E-2,-5.9029575E-2,-3.483977E-2,-5.8004875E-2,-3.5734255E-2,-3.6535457E-2,-1.4189536E-2,-2.9119289E-2,1.5014586E-3,-2.106279E-3,2.8098492E-2,-6.45158E-2,-4.5608606E-2,-4.644109E-2,-2.1607384E-2,-2.4143824E-2,-6.9650565E-4,-9.827264E-3,1.2451485E-2,-3.5015866E-3,2.4337795E-2,1.2040969E-2,3.307665E-2,5.7544243E-2,1.7761245E-2,3.795075E-2,5.8942642E-2,-1.9644741E-2,1.029473E-2,5.3694234E-3,2.5887478E-2,5.117813E-3,2.604512E-2,2.5820604E-2,4.170965E-2,3.0849902E-2,-1.5681585E-2,3.4877386E-2,4.976931E-2,2.843286E-2,5.1594265E-2,4.800839E-2,6.1786097E-2,-2.185612E-2,5.7210755E-2,4.1908123E-2,5.3865284E-2,4.261291E-2,5.8107525E-2,5.704204E-2,6.6799186E-2],"split_indices":[0,0,2,2,2,1,1,1,1,1,1,8,17,13,0,12,17,8,18,17,14,14,18,6,17,14,6,4,17,14,7,6,18,13,6,8,6,15,6,17,7,17,6,3,14,17,12,15,12,4,12,8,7,3,16,18,15,0,0,0,0,0,0,0,0,0,0,0,0,0,0,0,0,0,0,0,0,0,0,0,0,0,0,0,0,0,0,0,0,0,0,0,0,0,0,0,0,0,0,0,0,0,0,0,0,0,0,0,0,0,0,0,0],"split_type":[0,0,0,0,0,0,0,0,0,0,0,0,0,0,0,0,0,0,0,0,0,0,0,0,0,0,0,0,0,0,0,0,0,0,0,0,0,0,0,0,0,0,0,0,0,0,0,0,0,0,0,0,0,0,0,0,0,0,0,0,0,0,0,0,0,0,0,0,0,0,0,0,0,0,0,0,0,0,0,0,0,0,0,0,0,0,0,0,0,0,0,0,0,0,0,0,0,0,0,0,0,0,0,0,0,0,0,0,0,0,0,0,0],"sum_hessian":[1.7516254E4,8.502251E3,9.014004E3,4.800088E3,3.702163E3,7.003842E3,2.0101619E3,3.657673E3,1.1424149E3,2.8379102E3,8.642529E2,4.720904E3,2.282938E3,1.3810422E3,6.2911957E2,2.406497E3,1.2511761E3,7.648974E2,3.7751752E2,1.9066196E3,9.312904E2,5.87717E2,2.7653592E2,1.2900765E3,3.4308274E3,6.0043286E2,1.6825051E3,3.6410098E2,1.01694135E3,7.782711E2,1.6282258E3,3.7246393E2,8.787123E2,2.2355244E2,5.41345E2,2.2302115E2,1.5449638E2,5.6271594E2,1.3439037E3,2.6558716E2,6.6570325E2,1.560512E2,4.316658E2,7.581377E1,2.0072217E2,3.7603024E2,9.1404626E2,9.1591425E2,2.514913E3,1.582325E2,4.4220035E2,4.4123068E2,1.2412744E3,2.0108954E2,1.6301143E2,2.4975235E2,7.6718896E2,5.0734854E2,2.709226E2,1.0672948E3,5.60931E2,2.3198833E2,1.4047559E2,2.6171973E2,6.1699255E2,7.094575E1,1.526067E2,1.5669872E2,3.8464627E2,6.570634E1,1.573148E2,4.3202568E1,1.11293816E2,1.7183405E2,3.9088193E2,3.9502377E2,9.488799E2,1.658591E2,9.972807E1,1.9411774E2,4.715855E2,1.0173303E2,5.4318153E1,1.15660706E2,3.160051E2,1.3685809E1,6.2127956E1,4.8447357E1,1.5227481E2,1.026518E2,2.7337845E2,2.5125555E2,6.627907E2,2.4840543E2,6.6750885E2,7.0994617E2,1.8049668E3,1.5317157E2,5.060926E0,1.2151185E2,3.206885E2,1.1396033E2,3.2727036E2,2.9986636E2,9.41408E2,1.2578895E0,1.9983165E2,8.638391E1,7.6627525E1,5.9957943E1,1.8979442E2,2.1359135E2,5.535976E2],"tree_param":{"num_deleted":"0","num_feature":"20","num_nodes":"113","size_leaf_vector":"1"}},{"base_weights":[1.1319291E-2,-8.161575E-1,8.083155E-1,-1.2726517E0,-2.1640605E-1,6.833394E-1,1.2466011E0,-1.5645518E0,-3.2338485E-1,-4.529207E-1,5.703027E-1,5.338951E-1,9.9396056E-1,1.1493754E0,7.293881E-2,-1.8984554E0,-9.138979E-1,-5.150649E-1,6.824815E-2,-6.7085236E-1,-2.6858717E-3,4.181055E-1,8.9313936E-1,2.8557798E-1,6.275894E-1,7.9692686E-1,1.0640155E0,1.0181742E0,1.1954046E0,-2.0546315E0,-1.8224269E0,-1.1975957E0,-7.9184705E-1,-8.0943894E-1,-3.9160654E-1,-1.4441444E-1,3.7628317E-1,-9.662738E-1,-5.458879E-1,-3.0322346E-1,1.1487351E-1,1.1970634E-1,5.260387E-1,4.9055836E-1,1.043139E0,3.9752696E-2,3.870195E-1,3.8935792E-1,7.145456E-1,5.60579E-1,8.8039446E-1,8.7715614E-1,1.132465E0,1.075787E0,8.9429206E-1,1.0525299E0,1.240586E0,-1.0802003E-1,-9.24415E-2,-9.552043E-2,-8.257481E-2,-7.143902E-2,-4.0281847E-2,-5.52961E-2,-3.281628E-2,-5.626246E-2,-3.4032255E-2,-3.4409564E-2,-1.3433724E-2,-2.748782E-2,1.427415E-3,-2.0022865E-3,2.690239E-2,-5.4270864E-2,-3.7259236E-2,-4.362648E-2,-2.0417156E-2,-3.430944E-2,-7.3918374E-3,-2.8613978E-3,1.9779552E-2,-3.3252598E-3,2.3288308E-2,1.1479541E-2,3.1702977E-2,1.6996916E-3,3.4870714E-2,3.6449373E-2,5.690828E-2,-1.858079E-2,9.807861E-3,5.109051E-3,2.476248E-2,4.8693344E-3,2.491432E-2,2.4697952E-2,4.0067513E-2,2.9555274E-2,-1.4977244E-2,3.3452548E-2,4.7921818E-2,3.2712143E-2,4.78863E-2,4.8217792E-2,5.9602138E-2,-1.0238361E-2,5.4245222E-2,3.1538166E-2,4.9677785E-2,4.0972155E-2,5.608613E-2,5.503997E-2,6.462732E-2],"categories":[],"categories_nodes":[],"categories_segments":[],"categories_sizes":[],"default_left":[0,0,0,0,0,0,0,0,0,0,0,0,0,0,0,0,0,0,0,0,0,0,0,0,0,0,0,0,0,0,0,0,0,0,0,0,0,0,0,0,0,0,0,0,0,0,0,0,0,0,0,0,0,0,0,0,0,0,0,0,0,0,0,0,0,0,0,0,0,0,0,0,0,0,0,0,0,0,0,0,0,0,0,0,0,0,0,0,0,0,0,0,0,0,0,0,0,0,0,0,0,0,0,0,0,0,0,0,0,0,0,0,0],"id":1,"left_children":[1,3,5,7,9,11,13,15,17,19,21,23,25,27,-1,29,31,33,35,37,39,41,43,45,47,49,51,53,55,57,59,61,63,65,67,69,71,73,75,77,79,81,83,85,87,89,91,93,95,97,99,101,103,105,107,109,111,-1,-1,-1,-1,-1,-1,-1,-1,-1,-1,-1,-1,-1,-1,-1,-1,-1,-1,-1,-1,-1,-1,-1,-1,-1,-1,-1,-1,-1,-1,-1,-1,-1,-1,-1,-1,-1,-1,-1,-1,-1,-1,-1,-1,-1,-1,-1,-1,-1,-1,-1,-1,-1,-1,-1,-1],"loss_changes":[1.1544388E4,2.3510317E3,4.8756006E2,1.3506753E3,6.911121E2,3.2164893E2,3.911084E1,8.0845996E2,8.6219505E1,2.8015546E2,4.181714E1,1.0889429E2,3.0255127E1,6.999634E0,0E0,2.550879E1,4.2910522E1,2.7700943E1,2.4825941E1,7.0499695E1,3.297321E1,1.8792343E1,1.6048279E1,3.205719E1,7.0216675E1,1.1244446E1,2.0230103E1,1.6080933E0,5.1591797E0,1.3392822E1,2.1895996E1,3.3197876E1,3.7096252E1,8.461212E0,1.968856E1,1.5750164E1,1.04415455E1,1.4222107E1,6.049124E1,1.5514011E1,3.2433582E1,1.0135428E1,1.3612427E1,7.1849937E0,5.1080627E0,2.4317265E1,2.8013245E1,2.8961868E1,4.731714E1,4.3267174E0,6.582428E0,7.442993E0,1.0979248E1,3.0344543E0,2.5186386E0,3.06781E0,4.0631104E0,0E0,0E0,0E0,0E0,0E0,0E0,0E0,0E0,0E0,0E0,0E0,0E0,0E0,0E0,0E0,0E0,0E0,0E0,0E0,0E0,0E0,0E0,0E0,0E0,0E0,0E0,0E0,0E0,0E0,0E0,0E0,0E0,0E0,0E0,0E0,0E0,0E0,0E0,0E0,0E0,0E0,0E0,0E0,0E0,0E0,0E0,0E0,0E0,0E0,0E0,0E0,0E0,0E0,0E0,0E0,0E0],"parents":[2147483647,0,0,1,1,2,2,3,3,4,4,5,5,6,6,7,7,8,8,9,9,10,10,11,11,12,12,13,13,15,15,16,16,17,17,18,18,19,19,20,20,21,21,22,22,23,23,24,24,25,25,26,26,27,27,28,28,29,29,30,30,31,31,32,32,33,33,34,34,35,35,36,36,37,37,38,38,39,39,40,40,41,41,42,42,43,43,44,44,45,45,46,46,47,47,48,48,49,49,50,50,51,51,52,52,53,53,54,54,55,55,56,56],"right_children":[2,4,6,8,10,12,14,16,18,20,22,24,26,28,-1,30,32,34,36,38,40,42,44,46,48,50,52,54,56,58,60,62,64,66,68,70,72,74,76,78,80,82,84,86,88,90,92,94,96,98,100,102,104,106,108,110,112,-1,-1,-1,-1,-1,-1,-1,-1,-1,-1,-1,-1,-1,-1,-1,-1,-1,-1,-1,-1,-1,-1,-1,-1,-1,-1,-1,-1,-1,-1,-1,-1,-1,-1,-1,-1,-1,-1,-1,-1,-1,-1,-1,-1,-1,-1,-1,-1,-1,-1,-1,-1,-1,-1,-1,-1],"split_conditions":[2E0,1E0,1E0,1E0,1E0,1E0,1E0,1E0,1E0,1E0,1E0,1E0,1E0,1E0,7.293881E-2,1E0,1E0,1E0,2E0,1E0,1E0,1E0,1E0,1E0,1E0,1E0,1E0,1.3E1,1E0,2E0,2E0,2E0,1E0,1E0,1E0,1E0,1E0,2E0,1E0,1E0,2E0,2E0,1E0,1E0,1E0,1E0,1E0,1E0,1E0,1.9E1,1E0,1E0,1E0,1.87E1,1E0,1E0,1E0,-1.0802003E-1,-9.24415E-2,-9.552043E-2,-8.257481E-2,-7.143902E-2,-4.0281847E-2,-5.52961E-2,-3.281628E-2,-5.626246E-2,-3.4032255E-2,-3.4409564E-2,-1.3433724E-2,-2.748782E-2,1.427415E-3,-2.0022865E-3,2.690239E-2,-5.4270864E-2,-3.7259236E-2,-4.362648E-2,-2.0417156E-2,-3.430944E-2,-7.3918374E-3,-2.8613978E-3,1.9779552E-2,-3.3252598E-3,2.3288308E-2,1.1479541E-2,3.1702977E-2,1.6996916E-3,3.4870714E-2,3.6449373E-2,5.690828E-2,-1.858079E-2,9.807861E-3,5.109051E-3,2.476248E-2,4.8693344E-3,2.491432E-2,2.4697952E-2,4.0067513E-2,2.9555274E-2,-1.4977244E-2,3.3452548E-2,4.7921818E-2,3.2712143E-2,4.78863E-2,4.8217792E-2,5.9602138E-2,-1.0238361E-2,5.4245222E-2,3.1538166E-2,4.9677785E-2,4.0972155E-2,5.608613E-2,5.503997E-2,6.462732E-2],"split_indices":[0,0,2,2,2,1,1,1,1,1,1,8,17,13,0,12,17,8,18,17,6,14,18,6,17,14,13,4,17,14,7,6,18,12,6,8,6,18,6,13,7,17,6,17,14,17,12,15,12,4,12,6,18,3,7,18,15,0,0,0,0,0,0,0,0,0,0,0,0,0,0,0,0,0,0,0,0,0,0,0,0,0,0,0,0,0,0,0,0,0,0,0,0,0,0,0,0,0,0,0,0,0,0,0,0,0,0,0,0,0,0,0,0],"split_type":[0,0,0,0,0,0,0,0,0,0,0,0,0,0,0,0,0,0,0,0,0,0,0,0,0,0,0,0,0,0,0,0,0,0,0,0,0,0,0,0,0,0,0,0,0,0,0,0,0,0,0,0,0,0,0,0,0,0,0,0,0,0,0,0,0,0,0,0,0,0,0,0,0,0,0,0,0,0,0,0,0,0,0,0,0,0,0,0,0,0,0,0,0,0,0,0,0,0,0,0,0,0,0,0,0,0,0,0,0,0,0,0,0],"sum_hessian":[1.7502867E4,8.587215E3,8.915652E3,4.8753076E3,3.7119077E3,6.9394453E3,1.9762068E3,3.728227E3,1.1470804E3,2.854239E3,8.5766876E2,4.6871216E3,2.2523235E3,1.3596064E3,6.1660034E2,2.4625662E3,1.265661E3,7.699316E2,3.771489E2,1.9229596E3,9.3127936E2,5.84438E2,2.7323077E2,1.2851503E3,3.4019714E3,5.940104E2,1.6583131E3,3.5911276E2,1.00049365E3,7.977726E2,1.6647935E3,3.780652E2,8.875958E2,2.2585254E2,5.4407904E2,2.234285E2,1.537204E2,5.696204E2,1.3533391E3,2.6141055E2,6.6986884E2,1.5580325E2,4.286347E2,7.532852E1,1.9790225E2,3.7581702E2,9.0933325E2,9.111623E2,2.490809E3,1.5704263E2,4.3696774E2,4.4830496E2,1.210008E3,2.3987302E2,1.1923976E2,2.4621075E2,7.542829E2,5.206789E2,2.7709372E2,1.0923568E3,5.7243665E2,2.3614008E2,1.4192511E2,2.6538885E2,6.2220703E2,6.31842E1,1.6266833E2,1.5808546E2,3.8599356E2,6.6172745E1,1.5725575E2,4.3225254E1,1.1049514E2,3.6760883E2,2.0201155E2,3.994294E2,9.539097E2,7.446601E1,1.8694453E2,4.1576746E2,2.5410135E2,1.0182175E2,5.398151E1,1.1530949E2,3.1332523E2,2.385064E1,5.1477882E1,4.7974186E1,1.4992807E2,1.0314733E2,2.7266968E2,2.5091714E2,6.584161E2,2.480866E2,6.630757E2,7.0527264E2,1.7855364E3,1.5196214E2,5.0804925E0,1.2042377E2,3.1654398E2,1.21439E2,3.2686594E2,3.21114E2,8.888941E2,1.5441111E0,2.383289E2,3.463744E1,8.460232E1,5.9298065E1,1.8691269E2,2.1041028E2,5.438726E2],"tree_param":{"num_deleted":"0","num_feature":"20","num_nodes":"113","size_leaf_vector":"1"}},{"base_weights":[1.1092457E-2,-7.6920116E-1,7.771358E-1,-1.1943967E0,-2.0504704E-1,6.5564644E-1,1.2069533E0,-1.4645679E0,-3.061756E-1,-4.2809227E-1,5.464427E-1,5.110607E-1,9.582472E-1,1.1109859E0,7.087486E-2,-1.7727222E0,-8.5976404E-1,-4.865715E-1,6.4947225E-2,-6.325454E-1,-2.5513594E-3,3.9963445E-1,8.600229E-1,2.7240294E-1,6.015426E-1,7.659309E-1,1.0269121E0,9.8210275E-1,1.1563367E0,-1.9171206E0,-1.7023549E0,-1.1220596E0,-7.4104154E-1,-7.62439E-1,-3.703801E-1,-1.3706233E-1,3.5950089E-1,-9.0846163E-1,-5.153507E-1,-2.903705E-1,1.1316972E-1,1.14055924E-1,5.0349927E-1,4.696507E-1,1.0067021E0,3.1482697E-2,3.7232047E-1,3.7190515E-1,6.857553E-1,5.368117E-1,8.4723413E-1,8.442295E-1,1.0940883E0,1.0553418E0,8.861507E-1,1.0158365E0,1.2009102E0,-1.0073512E-1,-8.635034E-2,-8.917979E-2,-7.721507E-2,-7.075622E-2,-4.9201027E-2,-5.1637895E-2,-3.0961368E-2,-5.1951762E-2,-3.1371627E-2,-3.2443322E-2,-1.2721719E-2,-2.5967661E-2,1.3569966E-3,-1.9034924E-3,2.5758252E-2,-5.740121E-2,-4.000765E-2,-4.086442E-2,-1.9212188E-2,-2.2793522E-2,-5.925109E-4,-8.967015E-3,1.1733221E-2,-3.157973E-3,2.2283971E-2,1.0943443E-2,3.0390231E-2,5.479567E-2,1.5899176E-2,3.5016175E-2,5.499957E-2,-1.3647059E-2,7.45591E-3,5.746257E-3,2.3423329E-2,4.6326844E-3,2.3832781E-2,2.3624226E-2,3.850322E-2,2.8317422E-2,-1.4307569E-2,3.2091342E-2,4.617135E-2,3.169189E-2,4.6421714E-2,4.6103776E-2,5.767125E-2,-2.0867866E-2,5.335346E-2,3.8493935E-2,5.028972E-2,3.94095E-2,5.4187525E-2,5.3157043E-2,6.261458E-2],"categories":[],"categories_nodes":[],"categories_segments":[],"categories_sizes":[],"default_left":[0,0,0,0,0,0,0,0,0,0,0,0,0,0,0,0,0,0,0,0,0,0,0,0,0,0,0,0,0,0,0,0,0,0,0,0,0,0,0,0,0,0,0,0,0,0,0,0,0,0,0,0,0,0,0,0,0,0,0,0,0,0,0,0,0,0,0,0,0,0,0,0,0,0,0,0,0,0,0,0,0,0,0,0,0,0,0,0,0,0,0,0,0,0,0,0,0,0,0,0,0,0,0,0,0,0,0,0,0,0,0,0,0],"id":2,"left_children":[1,3,5,7,9,11,13,15,17,19,21,23,25,27,-1,29,31,33,35,37,39,41,43,45,47,49,51,53,55,57,59,61,63,65,67,69,71,73,75,77,79,81,83,85,87,89,91,93,95,97,99,101,103,105,107,109,111,-1,-1,-1,-1,-1,-1,-1,-1,-1,-1,-1,-1,-1,-1,-1,-1,-1,-1,-1,-1,-1,-1,-1,-1,-1,-1,-1,-1,-1,-1,-1,-1,-1,-1,-1,-1,-1,-1,-1,-1,-1,-1,-1,-1,-1,-1,-1,-1,-1,-1,-1,-1,-1,-1,-1,-1],"loss_changes":[1.0441866E4,2.0756377E3,4.5951025E2,1.1837007E3,6.2384265E2,3.0028735E2,3.7650146E1,7.035967E2,7.716643E1,2.4965417E2,3.8876953E1,1.0033667E2,2.8550415E1,6.685791E0,0E0,2.2194336E1,3.899597E1,2.4572052E1,2.252556E1,6.2207092E1,3.1083044E1,1.7210083E1,1.5033173E1,3.083059E1,6.498877E1,1.0506744E1,1.9130493E1,1.5590515E0,4.9437256E0,1.1602295E1,1.8989746E1,1.4650513E1,3.0752045E1,7.894104E0,1.751493E1,1.4124908E1,9.546871E0,1.4040283E1,5.3631165E1,1.2330408E1,2.3697613E1,9.2285795E0,1.2532013E1,6.8546677E0,4.8307495E0,1.3530465E1,2.2356361E1,2.6500267E1,4.4000732E1,3.9746819E0,6.1776123E0,7.2726135E0,1.1096802E1,3.8313446E0,1.4498138E0,2.9107819E0,3.9187012E0,0E0,0E0,0E0,0E0,0E0,0E0,0E0,0E0,0E0,0E0,0E0,0E0,0E0,0E0,0E0,0E0,0E0,0E0,0E0,0E0,0E0,0E0,0E0,0E0,0E0,0E0,0E0,0E0,0E0,0E0,0E0,0E0,0E0,0E0,0E0,0E0,0E0,0E0,0E0,0E0,0E0,0E0,0E0,0E0,0E0,0E0,0E0,0E0,0E0,0E0,0E0,0E0,0E0,0E0,0E0,0E0],"parents":[2147483647,0,0,1,1,2,2,3,3,4,4,5,5,6,6,7,7,8,8,9,9,10,10,11,11,12,12,13,13,15,15,16,16,17,17,18,18,19,19,20,20,21,21,22,22,23,23,24,24,25,25,26,26,27,27,28,28,29,29,30,30,31,31,32,32,33,33,34,34,35,35,36,36,37,37,38,38,39,39,40,40,41,41,42,42,43,43,44,44,45,45,46,46,47,47,48,48,49,49,50,50,51,51,52,52,53,53,54,54,55,55,56,56],"right_children":[2,4,6,8,10,12,14,16,18,20,22,24,26,28,-1,30,32,34,36,38,40,42,44,46,48,50,52,54,56,58,60,62,64,66,68,70,72,74,76,78,80,82,84,86,88,90,92,94,96,98,100,102,104,106,108,110,112,-1,-1,-1,-1,-1,-1,-1,-1,-1,-1,-1,-1,-1,-1,-1,-1,-1,-1,-1,-1,-1,-1,-1,-1,-1,-1,-1,-1,-1,-1,-1,-1,-1,-1,-1,-1,-1,-1,-1,-1,-1,-1,-1,-1,-1,-1,-1,-1,-1,-1,-1,-1,-1,-1,-1,-1],"split_conditions":[2E0,1E0,1E0,1E0,1E0,1E0,1E0,1E0,1E0,1E0,1E0,1E0,1E0,1E0,7.087486E-2,1E0,1E0,1E0,2E0,1E0,1E0,1E0,1E0,1E0,1E0,1E0,1E0,1.1E1,1E0,2E0,2E0,1E0,1E0,1E0,1E0,1E0,1E0,1E0,1E0,2E0,1E0,2E0,1E0,2.1E1,1E0,1E0,1E0,1E0,1E0,1.9E1,1E0,1E0,1E0,1.87E1,1E0,1E0,1E0,-1.0073512E-1,-8.635034E-2,-8.917979E-2,-7.721507E-2,-7.075622E-2,-4.9201027E-2,-5.1637895E-2,-3.0961368E-2,-5.1951762E-2,-3.1371627E-2,-3.2443322E-2,-1.2721719E-2,-2.5967661E-2,1.3569966E-3,-1.9034924E-3,2.5758252E-2,-5.740121E-2,-4.000765E-2,-4.086442E-2,-1.9212188E-2,-2.2793522E-2,-5.925109E-4,-8.967015E-3,1.1733221E-2,-3.157973E-3,2.2283971E-2,1.0943443E-2,3.0390231E-2,5.479567E-2,1.5899176E-2,3.5016175E-2,5.499957E-2,-1.3647059E-2,7.45591E-3,5.746257E-3,2.3423329E-2,4.6326844E-3,2.3832781E-2,2.3624226E-2,3.850322E-2,2.8317422E-2,-1.4307569E-2,3.2091342E-2,4.617135E-2,3.169189E-2,4.6421714E-2,4.6103776E-2,5.767125E-2,-2.0867866E-2,5.335346E-2,3.8493935E-2,5.028972E-2,3.94095E-2,5.4187525E-2,5.3157043E-2,6.261458E-2],"split_indices":[0,0,2,2,2,1,1,1,1,1,1,8,17,13,0,12,13,8,18,17,14,14,18,7,17,14,13,4,17,14,7,12,17,13,6,8,6,15,14,17,7,17,6,3,14,18,14,15,12,4,12,8,6,3,16,18,15,0,0,0,0,0,0,0,0,0,0,0,0,0,0,0,0,0,0,0,0,0,0,0,0,0,0,0,0,0,0,0,0,0,0,0,0,0,0,0,0,0,0,0,0,0,0,0,0,0,0,0,0,0,0,0,0],"split_type":[0,0,0,0,0,0,0,0,0,0,0,0,0,0,0,0,0,0,0,0,0,0,0,0,0,0,0,0,0,0,0,0,0,0,0,0,0,0,0,0,0,0,0,0,0,0,0,0,0,0,0,0,0,0,0,0,0,0,0,0,0,0,0,0,0,0,0,0,0,0,0,0,0,0,0,0,0,0,0,0,0,0,0,0,0,0,0,0,0,0,0,0,0,0,0,0,0,0,0,0,0,0,0,0,0,0,0,0,0,0,0,0,0],"sum_hessian":[1.746695E4,8.652989E3,8.81396E3,4.9335327E3,3.719456E3,6.873631E3,1.9403291E3,3.78239E3,1.1511427E3,2.868503E3,8.5095306E2,4.653047E3,2.2205842E3,1.3371318E3,6.031974E2,2.504426E3,1.277964E3,7.744069E2,3.7673584E2,1.9372539E3,9.3124915E2,5.8115106E2,2.6980203E2,1.2802446E3,3.372802E3,5.8743994E2,1.6331443E3,3.5393512E2,9.8319666E2,8.119695E2,1.6924565E3,3.9557108E2,8.823929E2,2.2785648E2,5.465504E2,2.2379108E2,1.5294478E2,5.7552344E2,1.3617305E3,2.6661655E2,6.6463257E2,1.55553E2,4.2559805E2,7.4835785E1,1.9496623E2,3.756927E2,9.0455194E2,9.0644867E2,2.4663535E3,1.5584853E2,4.315914E2,4.4272958E2,1.1904147E3,1.9505391E2,1.5888123E2,2.4252446E2,7.406722E2,5.302204E2,2.817491E2,1.1110714E3,5.8138513E2,1.2369916E2,2.7187192E2,2.577247E2,6.246682E2,7.2541016E1,1.5531544E2,1.5931078E2,3.8723965E2,6.65916E1,1.5719948E2,4.324675E1,1.0969803E2,1.7619872E2,3.9932474E2,4.1068787E2,9.5104254E2,1.6684097E2,9.977558E1,1.9490474E2,4.6972784E2,1.01905525E2,5.364747E1,1.149684E2,3.1062967E2,1.337638E1,6.1459408E1,4.749418E1,1.4747206E2,1.0434431E2,2.713484E2,2.4659122E2,6.579607E2,2.477808E2,6.5866785E2,7.006276E2,1.7657258E3,1.5074982E2,5.0987E0,1.1932588E2,3.122655E2,1.2898315E2,3.1374643E2,3.095604E2,8.8085425E2,1.2677059E0,1.937862E2,8.434645E1,7.4534775E1,5.862388E1,1.8390057E2,2.0709055E2,5.3358167E2],"tree_param":{"num_deleted":"0","num_feature":"20","num_nodes":"113","size_leaf_vector":"1"}},{"base_weights":[1.0842643E-2,-7.2642756E-1,7.474624E-1,-1.1245129E0,-1.9438212E-1,6.292082E-1,1.1699144E0,-1.3764385E0,-2.900286E-1,-4.049001E-1,5.237056E-1,4.892192E-1,9.2437977E-1,1.0748544E0,6.898728E-2,-1.664018E0,-8.100386E-1,-4.5997897E-1,6.1811313E-2,-5.9700125E-1,-2.424298E-3,3.8198704E-1,8.28662E-1,2.5978926E-1,5.7664484E-1,7.363619E-1,9.9182016E-1,9.4791424E-1,1.1196723E0,-1.7995716E0,-1.5979686E0,-1.0735368E0,-7.041983E-1,-7.1909034E-1,-3.504676E-1,-1.3011019E-1,3.434683E-1,-8.5872966E-1,-4.8368782E-1,-2.867324E-1,1.0937198E-1,1.1261232E-1,4.8663333E-1,4.5008546E-1,9.7221273E-1,2.4416044E-2,3.5739753E-1,3.4465727E-1,6.613273E-1,5.140766E-1,8.156464E-1,8.075929E-1,1.0571058E0,1.0198518E0,8.539738E-1,9.8110723E-1,1.163793E0,-9.4556965E-2,-8.106232E-2,-8.370063E-2,-7.249997E-2,-6.8584375E-2,-4.8063237E-2,-5.026381E-2,-2.9073346E-2,-5.060144E-2,-2.9971106E-2,-2.4178987E-2,-6.7150393E-3,-2.454826E-2,1.2900092E-3,-4.507482E-3,2.4176916E-2,-5.6178387E-2,-3.7891883E-2,-3.1493098E-2,-1.2290317E-2,-3.2301154E-2,-7.0002363E-3,-2.5751477E-3,1.868929E-2,-1.4364741E-2,1.274538E-2,1.1925547E-2,2.943993E-2,6.189286E-4,3.253724E-2,3.3645697E-2,5.3200822E-2,-1.8278465E-2,8.692222E-3,4.189649E-3,2.3097709E-2,3.0527841E-3,2.2280306E-2,2.1513363E-2,3.7231594E-2,2.7132649E-2,-1.3670499E-2,3.0789146E-2,4.450741E-2,2.334192E-2,4.6270702E-2,4.2267784E-2,5.6192856E-2,-2.0228842E-2,5.1571745E-2,3.702188E-2,4.8563924E-2,3.791783E-2,5.2396543E-2,5.1378738E-2,6.073956E-2],"categories":[],"categories_nodes":[],"categories_segments":[],"categories_sizes":[],"default_left":[0,0,0,0,0,0,0,0,0,0,0,0,0,0,0,0,0,0,0,0,0,0,0,0,0,0,0,0,0,0,0,0,0,0,0,0,0,0,0,0,0,0,0,0,0,0,0,0,0,0,0,0,0,0,0,0,0,0,0,0,0,0,0,0,0,0,0,0,0,0,0,0,0,0,0,0,0,0,0,0,0,0,0,0,0,0,0,0,0,0,0,0,0,0,0,0,0,0,0,0,0,0,0,0,0,0,0,0,0,0,0,0,0],"id":3,"left_children":[1,3,5,7,9,11,13,15,17,19,21,23,25,27,-1,29,31,33,35,37,39,41,43,45,47,49,51,53,55,57,59,61,63,65,67,69,71,73,75,77,79,81,83,85,87,89,91,93,95,97,99,101,103,105,107,109,111,-1,-1,-1,-1,-1,-1,-1,-1,-1,-1,-1,-1,-1,-1,-1,-1,-1,-1,-1,-1,-1,-1,-1,-1,-1,-1,-1,-1,-1,-1,-1,-1,-1,-1,-1,-1,-1,-1,-1,-1,-1,-1,-1,-1,-1,-1,-1,-1,-1,-1,-1,-1,-1,-1,-1,-1],"loss_changes":[9.457568E3,1.8431538E3,4.3443945E2,1.0461626E3,5.634967E2,2.8086304E2,3.649463E1,6.214536E2,6.91314E1,2.2282266E2,3.620993E1,9.25199E1,2.7026001E1,6.4191895E0,0E0,1.98208E1,3.5207764E1,2.1863144E1,2.0439306E1,5.744159E1,2.9659134E1,1.62631E1,1.4088577E1,2.9319786E1,6.547583E1,9.83374E0,1.8489136E1,1.4917297E0,4.765381E0,1.0366455E1,1.685254E1,1.0987579E1,3.3518494E1,7.476692E0,1.5754791E1,1.2677786E1,9.346851E0,1.4863403E1,4.7264526E1,1.3793524E1,2.8510015E1,9.363663E0,1.0420425E1,6.609991E0,4.5854797E0,2.193302E1,2.5773392E1,2.5637802E1,4.6819702E1,3.651188E0,5.8117065E0,1.6632202E1,1.5788086E1,3.599121E0,1.3820496E0,2.773697E0,3.8057861E0,0E0,0E0,0E0,0E0,0E0,0E0,0E0,0E0,0E0,0E0,0E0,0E0,0E0,0E0,0E0,0E0,0E0,0E0,0E0,0E0,0E0,0E0,0E0,0E0,0E0,0E0,0E0,0E0,0E0,0E0,0E0,0E0,0E0,0E0,0E0,0E0,0E0,0E0,0E0,0E0,0E0,0E0,0E0,0E0,0E0,0E0,0E0,0E0,0E0,0E0,0E0,0E0,0E0,0E0,0E0,0E0],"parents":[2147483647,0,0,1,1,2,2,3,3,4,4,5,5,6,6,7,7,8,8,9,9,10,10,11,11,12,12,13,13,15,15,16,16,17,17,18,18,19,19,20,20,21,21,22,22,23,23,24,24,25,25,26,26,27,27,28,28,29,29,30,30,31,31,32,32,33,33,34,34,35,35,36,36,37,37,38,38,39,39,40,40,41,41,42,42,43,43,44,44,45,45,46,46,47,47,48,48,49,49,50,50,51,51,52,52,53,53,54,54,55,55,56,56],"right_children":[2,4,6,8,10,12,14,16,18,20,22,24,26,28,-1,30,32,34,36,38,40,42,44,46,48,50,52,54,56,58,60,62,64,66,68,70,72,74,76,78,80,82,84,86,88,90,92,94,96,98,100,102,104,106,108,110,112,-1,-1,-1,-1,-1,-1,-1,-1,-1,-1,-1,-1,-1,-1,-1,-1,-1,-1,-1,-1,-1,-1,-1,-1,-1,-1,-1,-1,-1,-1,-1,-1,-1,-1,-1,-1,-1,-1,-1,-1,-1,-1,-1,-1,-1,-1,-1,-1,-1,-1,-1,-1,-1,-1,-1,-1],"split_conditions":[2E0,1E0,1E0,1E0,1E0,1E0,1E0,1E0,1E0,1E0,1E0,1E0,1E0,1E0,6.898728E-2,1E0,1E0,1E0,2E0,1E0,1E0,1E0,1E0,1E0,1E0,1E0,1E0,1.1E1,1E0,2E0,2E0,1E0,1E0,1E0,2E0,1E0,1E0,1E0,2E0,1E0,2E0,1E0,1E0,1E0,1E0,1E0,1E0,1E0,1E0,1.9E1,1E0,1E0,1E0,1.87E1,1E0,1E0,1E0,-9.4556965E-2,-8.106232E-2,-8.370063E-2,-7.249997E-2,-6.8584375E-2,-4.8063237E-2,-5.026381E-2,-2.9073346E-2,-5.060144E-2,-2.9971106E-2,-2.4178987E-2,-6.7150393E-3,-2.454826E-2,1.2900092E-3,-4.507482E-3,2.4176916E-2,-5.6178387E-2,-3.7891883E-2,-3.1493098E-2,-1.2290317E-2,-3.2301154E-2,-7.0002363E-3,-2.5751477E-3,1.868929E-2,-1.4364741E-2,1.274538E-2,1.1925547E-2,2.943993E-2,6.189286E-4,3.253724E-2,3.3645697E-2,5.3200822E-2,-1.8278465E-2,8.692222E-3,4.189649E-3,2.3097709E-2,3.0527841E-3,2.2280306E-2,2.1513363E-2,3.7231594E-2,2.7132649E-2,-1.3670499E-2,3.0789146E-2,4.450741E-2,2.334192E-2,4.6270702E-2,4.2267784E-2,5.6192856E-2,-2.0228842E-2,5.1571745E-2,3.702188E-2,4.8563924E-2,3.791783E-2,5.2396543E-2,5.1378738E-2,6.073956E-2],"split_indices":[0,0,2,2,2,1,1,1,1,1,1,8,17,13,0,12,15,8,18,13,6,17,18,6,18,14,6,4,17,14,7,11,18,12,17,8,14,11,7,13,7,7,8,17,14,17,12,12,6,4,12,8,7,3,16,18,15,0,0,0,0,0,0,0,0,0,0,0,0,0,0,0,0,0,0,0,0,0,0,0,0,0,0,0,0,0,0,0,0,0,0,0,0,0,0,0,0,0,0,0,0,0,0,0,0,0,0,0,0,0,0,0,0],"split_type":[0,0,0,0,0,0,0,0,0,0,0,0,0,0,0,0,0,0,0,0,0,0,0,0,0,0,0,0,0,0,0,0,0,0,0,0,0,0,0,0,0,0,0,0,0,0,0,0,0,0,0,0,0,0,0,0,0,0,0,0,0,0,0,0,0,0,0,0,0,0,0,0,0,0,0,0,0,0,0,0,0,0,0,0,0,0,0,0,0,0,0,0,0,0,0,0,0,0,0,0,0,0,0,0,0,0,0,0,0,0,0,0,0],"sum_hessian":[1.7412436E4,8.702383E3,8.710053E3,4.977225E3,3.725158E3,6.8070806E3,1.9029725E3,3.822567E3,1.1546583E3,2.8809895E3,8.4416833E2,4.619079E3,2.1880012E3,1.3138708E3,5.891017E2,2.5340237E3,1.2885432E3,7.7837164E2,3.7628668E2,1.9498469E3,9.3114264E2,5.778731E2,2.6629523E2,1.2755753E3,3.343504E3,5.8077374E2,1.6072275E3,3.4861682E2,9.652541E2,8.2160114E2,1.7124225E3,3.6663422E2,9.2190894E2,2.2958691E2,5.487847E2,2.2411346E2,1.521732E2,5.871303E2,1.3627167E3,2.6236353E2,6.687791E2,1.6226239E2,4.1561072E2,7.4350685E1,1.9194452E2,3.742812E2,9.012941E2,8.9546075E2,2.4480432E3,1.5465642E2,4.2611734E2,4.2403293E2,1.1831946E3,1.918477E2,1.5676912E2,2.3873155E2,7.265225E2,5.365071E2,2.8509402E2,1.1243077E3,5.881148E2,9.722505E1,2.6940918E2,2.6489413E2,6.5701483E2,6.442432E1,1.651626E2,3.3887424E2,2.0991052E2,6.6967636E1,1.5714583E2,3.7241184E1,1.14932014E2,1.5917223E2,4.279581E2,8.4303687E2,5.1967975E2,7.508957E1,1.8727397E2,4.1629913E2,2.5247995E2,4.231662E1,1.1994578E2,1.2219E2,2.9342072E2,2.3704567E1,5.0646122E1,4.7010525E1,1.44934E2,1.0328268E2,2.7099854E2,2.4969418E2,6.515999E2,2.3548988E2,6.599709E2,6.5034906E2,1.7976941E3,1.4954077E2,5.1156483E0,1.18224846E2,3.078925E2,1.1022102E2,3.1381192E2,2.8686395E2,8.963306E2,1.273797E0,1.9057391E2,8.337989E1,7.338924E1,5.794055E1,1.80791E2,2.0366771E2,5.228548E2],"tree_param":{"num_deleted":"0","num_feature":"20","num_nodes":"113","size_leaf_vector":"1"}},{"base_weights":[1.0574581E-2,-6.872028E-1,7.19146E-1,-1.0615474E0,-1.8435144E-1,6.0391915E-1,1.1351467E0,-1.2979654E0,-2.7482495E-1,-3.831544E-1,5.0184596E-1,4.6829963E-1,8.9216644E-1,1.0407037E0,6.725251E-2,-1.5688394E0,-7.641967E-1,-4.3505597E-1,5.8817748E-2,-5.638653E-1,-2.3045302E-3,3.650116E-1,7.986624E-1,2.4777706E-1,5.527484E-1,7.080963E-1,9.585217E-1,9.154003E-1,1.0851086E0,-1.69769E0,-1.5061221E0,-1.0142256E0,-6.562672E-1,-6.8140364E-1,-3.318679E-1,-1.2353219E-1,3.280629E-1,-8.210027E-1,-4.544235E-1,-2.743529E-1,1.0763465E-1,9.072303E-2,4.6542773E-1,4.3092573E-1,9.394503E-1,1.7109351E-2,3.4390232E-1,3.2948792E-1,6.3509727E-1,4.92311E-1,7.854819E-1,7.765263E-1,1.0258156E0,7.76213E-1,9.619107E-1,9.5240235E-1,1.130768E0,-8.92409E-2,-7.6415434E-2,-7.8905314E-2,-6.830826E-2,-6.130668E-2,-3.2741483E-2,-4.8320003E-2,-2.6768668E-2,-5.2511264E-2,-2.5837803E-2,-2.953424E-2,-1.1127849E-2,-2.3220541E-2,1.2263225E-3,-2.553256E-3,2.3899632E-2,-4.6510253E-2,-3.090836E-2,-3.7850864E-2,-1.6331235E-2,-2.1534864E-2,-4.988077E-4,-8.179215E-3,1.1056312E-2,-3.7824137E-3,2.0271482E-2,9.587756E-3,2.8322829E-2,5.2310396E-2,1.4204438E-2,3.993091E-2,5.7011623E-2,-1.3599566E-2,6.4754537E-3,4.8461915E-3,2.1831566E-2,3.0304517E-3,2.1551704E-2,2.085582E-2,3.596538E-2,1.1681038E-2,2.9155249E-2,2.9541848E-2,4.2921092E-2,2.8025646E-2,4.277557E-2,4.277709E-2,5.432519E-2,2.438477E-2,4.312192E-2,5.1252242E-2,3.976097E-2,3.6491044E-2,5.0753172E-2,5.077709E-2,5.8593262E-2],"categories":[],"categories_nodes":[],"categories_segments":[],"categories_sizes":[],"default_left":[0,0,0,0,0,0,0,0,0,0,0,0,0,0,0,0,0,0,0,0,0,0,0,0,0,0,0,0,0,0,0,0,0,0,0,0,0,0,0,0,0,0,0,0,0,0,0,0,0,0,0,0,0,0,0,0,0,0,0,0,0,0,0,0,0,0,0,0,0,0,0,0,0,0,0,0,0,0,0,0,0,0,0,0,0,0,0,0,0,0,0,0,0,0,0,0,0,0,0,0,0,0,0,0,0,0,0,0,0,0,0,0,0],"id":4,"left_children":[1,3,5,7,9,11,13,15,17,19,21,23,25,27,-1,29,31,33,35,37,39,41,43,45,47,49,51,53,55,57,59,61,63,65,67,69,71,73,75,77,79,81,83,85,87,89,91,93,95,97,99,101,103,105,107,109,111,-1,-1,-1,-1,-1,-1,-1,-1,-1,-1,-1,-1,-1,-1,-1,-1,-1,-1,-1,-1,-1,-1,-1,-1,-1,-1,-1,-1,-1,-1,-1,-1,-1,-1,-1,-1,-1,-1,-1,-1,-1,-1,-1,-1,-1,-1,-1,-1,-1,-1,-1,-1,-1,-1,-1,-1],"loss_changes":[8.575701E3,1.6448237E3,4.1183008E2,9.313667E2,5.0911023E2,2.6311304E2,3.5582275E1,5.5568115E2,6.1974564E1,1.9911407E2,3.376207E1,8.5276306E1,2.5652344E1,6.1901855E0,0E0,1.808252E1,3.437628E1,1.9676743E1,1.854201E1,5.484369E1,2.7904924E1,1.5815102E1,1.3248947E1,2.819461E1,6.0749573E1,9.215973E0,1.8575684E1,1.4815979E0,4.66626E0,9.496338E0,1.52404785E1,2.8875916E1,3.3595825E1,1.3435745E1,1.5535416E1,1.1387328E1,8.689299E0,1.2372742E1,5.3063263E1,1.1094784E1,2.0489908E1,8.173958E0,1.1537048E1,6.4661903E0,4.458069E0,1.2226008E1,2.0516388E1,2.442434E1,4.414276E1,3.4919357E0,5.4782104E0,6.875885E0,1.0971313E1,1.852951E0,1.8559418E0,2.7317047E0,2.1241455E0,0E0,0E0,0E0,0E0,0E0,0E0,0E0,0E0,0E0,0E0,0E0,0E0,0E0,0E0,0E0,0E0,0E0,0E0,0E0,0E0,0E0,0E0,0E0,0E0,0E0,0E0,0E0,0E0,0E0,0E0,0E0,0E0,0E0,0E0,0E0,0E0,0E0,0E0,0E0,0E0,0E0,0E0,0E0,0E0,0E0,0E0,0E0,0E0,0E0,0E0,0E0,0E0,0E0,0E0,0E0,0E0],"parents":[2147483647,0,0,1,1,2,2,3,3,4,4,5,5,6,6,7,7,8,8,9,9,10,10,11,11,12,12,13,13,15,15,16,16,17,17,18,18,19,19,20,20,21,21,22,22,23,23,24,24,25,25,26,26,27,27,28,28,29,29,30,30,31,31,32,32,33,33,34,34,35,35,36,36,37,37,38,38,39,39,40,40,41,41,42,42,43,43,44,44,45,45,46,46,47,47,48,48,49,49,50,50,51,51,52,52,53,53,54,54,55,55,56,56],"right_children":[2,4,6,8,10,12,14,16,18,20,22,24,26,28,-1,30,32,34,36,38,40,42,44,46,48,50,52,54,56,58,60,62,64,66,68,70,72,74,76,78,80,82,84,86,88,90,92,94,96,98,100,102,104,106,108,110,112,-1,-1,-1,-1,-1,-1,-1,-1,-1,-1,-1,-1,-1,-1,-1,-1,-1,-1,-1,-1,-1,-1,-1,-1,-1,-1,-1,-1,-1,-1,-1,-1,-1,-1,-1,-1,-1,-1,-1,-1,-1,-1,-1,-1,-1,-1,-1,-1,-1,-1,-1,-1,-1,-1,-1,-1],"split_conditions":[2E0,1E0,1E0,1E0,1E0,1E0,1E0,1E0,1E0,1E0,1E0,1E0,1E0,1E0,6.725251E-2,1E0,1E0,1E0,2E0,1E0,1E0,1E0,1E0,1E0,1E0,1E0,1E0,1E0,1E0,2E0,2E0,2E0,1E0,1E0,1E0,1E0,1E0,2E0,1E0,2E0,1E0,2E0,1E0,2.1E1,2E0,1E0,1E0,1E0,1E0,1E0,1E0,1E0,1E0,1E0,1.4E1,1E0,1E0,-8.92409E-2,-7.6415434E-2,-7.8905314E-2,-6.830826E-2,-6.130668E-2,-3.2741483E-2,-4.8320003E-2,-2.6768668E-2,-5.2511264E-2,-2.5837803E-2,-2.953424E-2,-1.1127849E-2,-2.3220541E-2,1.2263225E-3,-2.553256E-3,2.3899632E-2,-4.6510253E-2,-3.090836E-2,-3.7850864E-2,-1.6331235E-2,-2.1534864E-2,-4.988077E-4,-8.179215E-3,1.1056312E-2,-3.7824137E-3,2.0271482E-2,9.587756E-3,2.8322829E-2,5.2310396E-2,1.4204438E-2,3.993091E-2,5.7011623E-2,-1.3599566E-2,6.4754537E-3,4.8461915E-3,2.1831566E-2,3.0304517E-3,2.1551704E-2,2.085582E-2,3.596538E-2,1.1681038E-2,2.9155249E-2,2.9541848E-2,4.2921092E-2,2.8025646E-2,4.277557E-2,4.277709E-2,5.432519E-2,2.438477E-2,4.312192E-2,5.1252242E-2,3.976097E-2,3.6491044E-2,5.0753172E-2,5.077709E-2,5.8593262E-2],"split_indices":[0,0,2,2,2,1,1,1,1,1,1,8,17,13,0,12,17,6,18,17,14,14,18,7,17,14,13,8,18,14,7,6,11,7,8,8,6,18,6,17,7,17,6,3,8,18,14,15,13,6,12,6,18,15,4,17,15,0,0,0,0,0,0,0,0,0,0,0,0,0,0,0,0,0,0,0,0,0,0,0,0,0,0,0,0,0,0,0,0,0,0,0,0,0,0,0,0,0,0,0,0,0,0,0,0,0,0,0,0,0,0,0,0],"split_type":[0,0,0,0,0,0,0,0,0,0,0,0,0,0,0,0,0,0,0,0,0,0,0,0,0,0,0,0,0,0,0,0,0,0,0,0,0,0,0,0,0,0,0,0,0,0,0,0,0,0,0,0,0,0,0,0,0,0,0,0,0,0,0,0,0,0,0,0,0,0,0,0,0,0,0,0,0,0,0,0,0,0,0,0,0,0,0,0,0,0,0,0,0,0,0,0,0,0,0,0,0,0,0,0,0,0,0,0,0,0,0,0,0],"sum_hessian":[1.7342791E4,8.737966E3,8.604825E3,5.00839E3,3.7295757E3,6.7403E3,1.8645258E3,3.850597E3,1.1577931E3,2.892121E3,8.374546E2,4.585473E3,2.1548267E3,1.290046E3,5.744796E2,2.55305E3,1.297547E3,7.819565E2,3.7583655E2,1.9611073E3,9.3101385E2,5.7473E2,2.6272458E2,1.2708398E3,3.314633E3,5.740574E2,1.5807694E3,3.432027E2,9.468434E2,8.273074E2,1.7257427E3,3.886968E2,9.0885016E2,2.2919077E2,5.5276575E2,2.2439987E2,1.5143668E2,5.8354535E2,1.377562E3,2.6752307E2,6.634908E2,1.5453049E2,4.2019952E2,7.386103E1,1.8886354E2,3.7416058E2,8.966793E2,8.9450244E2,2.4201306E3,1.5347179E2,4.2058557E2,4.301025E2,1.1506669E3,9.0389984E1,2.5281271E2,2.47975E2,6.9886835E2,5.4E2,2.8730737E2,1.1328214E3,5.9292126E2,2.430043E2,1.456925E2,2.5295168E2,6.5589844E2,6.90764E1,1.6011436E2,1.6282921E2,3.8993652E2,6.730513E1,1.5709474E2,4.3102528E1,1.0833415E2,3.7699384E2,2.0655148E2,4.0758502E2,9.69977E2,1.677134E2,9.980969E1,1.95603E2,4.678878E2,1.0158609E2,5.2944397E1,1.1407764E2,3.061219E2,1.3050663E1,6.081037E1,1.1392916E2,7.493439E1,1.0434849E2,2.698121E2,2.453223E2,6.51357E2,2.4565144E2,6.48851E2,6.7606616E2,1.7440646E3,4.0799355E1,1.1267243E2,1.1712629E2,3.034593E2,1.1732669E2,3.1277582E2,3.06319E2,8.443479E2,2.2329515E1,6.806047E1,1.7962914E2,7.318357E1,5.725257E1,1.9072243E2,1.9049141E2,5.0837698E2],"tree_param":{"num_deleted":"0","num_feature":"20","num_nodes":"113","size_leaf_vector":"1"}},{"base_weights":[1.0304567E-2,-6.5111285E-1,6.9208044E-1,-1.0044509E0,-1.7491445E-1,5.7971126E-1,1.1023563E0,-1.2275115E0,-2.6054072E-1,-3.6281607E-1,4.8104024E-1,4.482726E-1,8.6141276E-1,1.0082905E0,6.565081E-2,-1.4845788E0,-7.218741E-1,-4.117427E-1,5.598274E-2,-5.330692E-1,-2.191114E-3,3.4886396E-1,7.700766E-1,2.2873054E-1,5.3002167E-1,6.810479E-1,9.2678094E-1,8.7666637E-1,1.0516887E0,-1.6083246E0,-1.4244559E0,-9.634023E-1,-6.123434E-1,-6.449304E-1,-3.1278047E-1,-1.17304936E-1,3.1339908E-1,-7.769726E-1,-4.271555E-1,-2.7128908E-1,1.04143344E-1,9.1228716E-2,4.4959825E-1,4.1300455E-1,9.081595E-1,-3.270275E-2,3.3487174E-1,3.1088102E-1,6.1372817E-1,4.7156647E-1,7.566128E-1,7.480789E-1,9.9319094E-1,6.771984E-1,9.4807494E-1,9.2201346E-1,1.0963657E0,-8.4609136E-2,-7.2288364E-2,-7.480662E-2,-6.452082E-2,-6.1666798E-2,-4.181264E-2,-4.4562463E-2,-2.4593322E-2,-4.510833E-2,-2.5981266E-2,-2.188975E-2,-5.456468E-3,-2.297558E-2,1.345121E-3,-4.989197E-3,2.2410002E-2,-5.1188964E-2,-3.4137968E-2,-2.8169988E-2,-1.0234739E-2,-3.04458E-2,-6.631858E-3,-2.3144914E-3,1.7661326E-2,-1.434319E-2,1.1352684E-2,8.716759E-3,2.7153868E-2,9.328312E-3,3.9496344E-2,3.053537E-2,5.002738E-2,-8.9116255E-3,1.1061649E-2,4.1141654E-3,2.1413723E-2,2.7167832E-4,2.149268E-2,1.8903678E-2,3.5096757E-2,2.497209E-2,-1.4132636E-2,2.8345887E-2,4.140475E-2,2.7005745E-2,4.1603927E-2,4.1278016E-2,5.2660555E-2,4.0978856E-2,5.810009E-3,5.297909E-2,4.167522E-2,4.948495E-2,3.864288E-2,4.7514305E-2,5.7092845E-2],"categories":[],"categories_nodes":[],"categories_segments":[],"categories_sizes":[],"default_left":[0,0,0,0,0,0,0,0,0,0,0,0,0,0,0,0,0,0,0,0,0,0,0,0,0,0,0,0,0,0,0,0,0,0,0,0,0,0,0,0,0,0,0,0,0,0,0,0,0,0,0,0,0,0,0,0,0,0,0,0,0,0,0,0,0,0,0,0,0,0,0,0,0,0,0,0,0,0,0,0,0,0,0,0,0,0,0,0,0,0,0,0,0,0,0,0,0,0,0,0,0,0,0,0,0,0,0,0,0,0,0,0,0],"id":5,"left_children":[1,3,5,7,9,11,13,15,17,19,21,23,25,27,-1,29,31,33,35,37,39,41,43,45,47,49,51,53,55,57,59,61,63,65,67,69,71,73,75,77,79,81,83,85,87,89,91,93,95,97,99,101,103,105,107,109,111,-1,-1,-1,-1,-1,-1,-1,-1,-1,-1,-1,-1,-1,-1,-1,-1,-1,-1,-1,-1,-1,-1,-1,-1,-1,-1,-1,-1,-1,-1,-1,-1,-1,-1,-1,-1,-1,-1,-1,-1,-1,-1,-1,-1,-1,-1,-1,-1,-1,-1,-1,-1,-1,-1,-1,-1],"loss_changes":[7.783857E3,1.4740344E3,3.912273E2,8.342427E2,4.6030536E2,2.4674805E2,3.4867676E1,5.0182422E2,5.5608757E1,1.7820325E2,3.1505173E1,8.15957E1,2.4391968E1,6.3146973E0,0E0,1.6785156E1,3.3958984E1,1.7939041E1,1.6824303E1,5.0600952E1,2.6691965E1,1.4817863E1,1.2452118E1,3.434072E1,6.0654297E1,8.639923E0,1.7711548E1,3.9180756E0,4.4799805E0,8.876709E0,1.4731934E1,1.2893646E1,2.9845032E1,7.0503235E0,1.4052406E1,1.1148099E1,8.493382E0,1.3153198E1,4.1617416E1,1.228718E1,2.5070084E1,8.394269E0,1.0489853E1,6.2012386E0,4.5216827E0,1.327511E1,2.072622E1,3.338804E1,4.9604187E1,3.3646507E0,5.171829E0,6.9813232E0,1.0506348E1,6.925518E0,2.096695E0,1.7504272E0,3.5640259E0,0E0,0E0,0E0,0E0,0E0,0E0,0E0,0E0,0E0,0E0,0E0,0E0,0E0,0E0,0E0,0E0,0E0,0E0,0E0,0E0,0E0,0E0,0E0,0E0,0E0,0E0,0E0,0E0,0E0,0E0,0E0,0E0,0E0,0E0,0E0,0E0,0E0,0E0,0E0,0E0,0E0,0E0,0E0,0E0,0E0,0E0,0E0,0E0,0E0,0E0,0E0,0E0,0E0,0E0,0E0,0E0],"parents":[2147483647,0,0,1,1,2,2,3,3,4,4,5,5,6,6,7,7,8,8,9,9,10,10,11,11,12,12,13,13,15,15,16,16,17,17,18,18,19,19,20,20,21,21,22,22,23,23,24,24,25,25,26,26,27,27,28,28,29,29,30,30,31,31,32,32,33,33,34,34,35,35,36,36,37,37,38,38,39,39,40,40,41,41,42,42,43,43,44,44,45,45,46,46,47,47,48,48,49,49,50,50,51,51,52,52,53,53,54,54,55,55,56,56],"right_children":[2,4,6,8,10,12,14,16,18,20,22,24,26,28,-1,30,32,34,36,38,40,42,44,46,48,50,52,54,56,58,60,62,64,66,68,70,72,74,76,78,80,82,84,86,88,90,92,94,96,98,100,102,104,106,108,110,112,-1,-1,-1,-1,-1,-1,-1,-1,-1,-1,-1,-1,-1,-1,-1,-1,-1,-1,-1,-1,-1,-1,-1,-1,-1,-1,-1,-1,-1,-1,-1,-1,-1,-1,-1,-1,-1,-1,-1,-1,-1,-1,-1,-1,-1,-1,-1,-1,-1,-1,-1,-1,-1,-1,-1,-1],"split_conditions":[2E0,1E0,1E0,1E0,1E0,1E0,1E0,1E0,1E0,1E0,1E0,1E0,1E0,1E0,6.565081E-2,1E0,1E0,1E0,2E0,1E0,1E0,1E0,1E0,1E0,1E0,1E0,1E0,1E0,1E0,2E0,2E0,1E0,1E0,1E0,2E0,1E0,1E0,1E0,2E0,1E0,2E0,1E0,1E0,2E0,1E0,2E0,1E0,1E0,1E0,1.9E1,1E0,1E0,1E0,1.6E1,2.7E1,1.3E1,1E0,-8.4609136E-2,-7.2288364E-2,-7.480662E-2,-6.452082E-2,-6.1666798E-2,-4.181264E-2,-4.4562463E-2,-2.4593322E-2,-4.510833E-2,-2.5981266E-2,-2.188975E-2,-5.456468E-3,-2.297558E-2,1.345121E-3,-4.989197E-3,2.2410002E-2,-5.1188964E-2,-3.4137968E-2,-2.8169988E-2,-1.0234739E-2,-3.04458E-2,-6.631858E-3,-2.3144914E-3,1.7661326E-2,-1.434319E-2,1.1352684E-2,8.716759E-3,2.7153868E-2,9.328312E-3,3.9496344E-2,3.053537E-2,5.002738E-2,-8.9116255E-3,1.1061649E-2,4.1141654E-3,2.1413723E-2,2.7167832E-4,2.149268E-2,1.8903678E-2,3.5096757E-2,2.497209E-2,-1.4132636E-2,2.8345887E-2,4.140475E-2,2.7005745E-2,4.1603927E-2,4.1278016E-2,5.2660555E-2,4.0978856E-2,5.810009E-3,5.297909E-2,4.167522E-2,4.948495E-2,3.864288E-2,4.7514305E-2,5.7092845E-2],"split_indices":[0,0,2,2,2,1,1,1,1,1,1,18,17,14,0,12,13,8,18,13,6,17,18,7,6,14,13,8,13,14,6,12,14,13,17,7,14,11,7,13,7,7,12,6,14,15,6,13,14,4,12,8,18,4,3,4,17,0,0,0,0,0,0,0,0,0,0,0,0,0,0,0,0,0,0,0,0,0,0,0,0,0,0,0,0,0,0,0,0,0,0,0,0,0,0,0,0,0,0,0,0,0,0,0,0,0,0,0,0,0,0,0,0],"split_type":[0,0,0,0,0,0,0,0,0,0,0,0,0,0,0,0,0,0,0,0,0,0,0,0,0,0,0,0,0,0,0,0,0,0,0,0,0,0,0,0,0,0,0,0,0,0,0,0,0,0,0,0,0,0,0,0,0,0,0,0,0,0,0,0,0,0,0,0,0,0,0,0,0,0,0,0,0,0,0,0,0,0,0,0,0,0,0,0,0,0,0,0,0,0,0,0,0,0,0,0,0,0,0,0,0,0,0,0,0,0,0,0,0],"sum_hessian":[1.7259463E4,8.760553E3,8.49891E3,5.02839E3,3.732163E3,6.6735293E3,1.8253802E3,3.8679424E3,1.1604476E3,2.901469E3,8.3069403E2,4.5521436E3,2.1213857E3,1.2659038E3,5.594764E2,2.5629805E3,1.304962E3,7.851052E2,3.7534244E2,1.9706403E3,9.3082886E2,5.715371E2,2.591569E2,1.2361602E3,3.3159834E3,5.673536E2,1.5540322E3,3.1914798E2,9.467559E2,8.296449E2,1.7333356E3,4.0471722E2,9.0024475E2,2.3227402E2,5.528312E2,2.24654E2,1.5068842E2,5.9473016E2,1.37591E3,2.6320108E2,6.6762775E2,1.6118932E2,4.103478E2,7.338357E1,1.8577332E2,3.571547E2,8.7900543E2,9.178355E2,2.398148E3,1.5232297E2,4.150306E2,4.243684E2,1.1296638E3,8.689758E1,2.322504E2,2.481465E2,6.986094E2,5.410995E2,2.885454E2,1.1227776E3,6.10558E2,1.2680819E2,2.7790903E2,2.69636E2,6.3060876E2,7.405282E1,1.582212E2,3.418384E2,2.1099275E2,6.595504E1,1.5869897E2,3.71324E1,1.1355602E2,1.6157967E2,4.331505E2,8.523579E2,5.235522E2,7.563442E1,1.8756667E2,4.16748E2,2.5087976E2,4.2307365E1,1.1888195E2,1.04752785E2,3.0559503E2,4.677699E1,2.6606577E1,4.5829926E1,1.3994339E2,2.2722873E2,1.2992595E2,2.3780138E2,6.412041E2,2.5757892E2,6.602566E2,6.5459955E2,1.7435485E3,1.4721965E2,5.103319E0,1.160351E2,2.989955E2,1.24230934E2,3.0013745E2,3.0172592E2,8.279379E2,6.894001E1,1.795757E1,1.1351888E2,1.18731514E2,1.6681297E2,8.133353E1,1.710925E2,5.275169E2],"tree_param":{"num_deleted":"0","num_feature":"20","num_nodes":"113","size_leaf_vector":"1"}},{"base_weights":[1.0023896E-2,-6.176576E-1,6.6610503E-1,-9.5220166E-1,-1.6601333E-1,5.564554E-1,1.0712782E0,-1.1636107E0,-2.4704796E-1,-3.4368154E-1,4.6099672E-1,4.2902967E-1,8.3197963E-1,9.773832E-1,6.416543E-2,-1.4091849E0,-6.825006E-1,-3.898329E-1,5.3265277E-2,-5.042169E-1,-2.0844303E-3,3.3331084E-1,7.4262595E-1,2.1590671E-1,5.1115644E-1,6.550778E-1,8.964529E-1,8.47647E-1,1.0203143E0,-1.5291095E0,-1.3510668E0,-9.280174E-1,-5.8376086E-1,-6.213119E-1,-2.9268843E-1,-1.0572261E-1,3.1640062E-1,-7.4322724E-1,-3.992625E-1,-2.593546E-1,1.023784E-1,6.989062E-2,4.3039834E-1,3.955492E-1,8.7829506E-1,-1.6400998E-3,3.0716375E-1,3.0142948E-1,5.956583E-1,4.515557E-1,7.289288E-1,7.1098745E-1,9.627513E-1,6.5238506E-1,9.179199E-1,8.916955E-1,1.0648304E0,-8.052927E-2,-6.8588436E-2,-7.104189E-2,-6.080417E-2,-5.9476227E-2,-4.1461386E-2,-4.3079667E-2,-2.3439264E-2,-4.8304223E-2,-2.3345647E-2,-2.6202315E-2,-9.730284E-3,4.888996E-3,-2.5783872E-2,-8.871841E-3,2.4844317E-2,-5.427862E-2,-2.9785875E-2,-3.256046E-2,-1.46817705E-2,-2.035947E-2,-4.144369E-4,-7.457224E-3,1.0418231E-2,-4.305561E-3,1.8412288E-2,1.4851539E-2,3.204977E-2,5.0096747E-2,1.2653405E-2,3.6893815E-2,5.401156E-2,-1.362777E-2,5.11777E-3,3.0289895E-3,2.0110957E-2,-3.108571E-4,2.0757003E-2,1.9271469E-2,3.3973124E-2,1.0079354E-2,2.699835E-2,2.659604E-2,3.984337E-2,1.862937E-2,4.147978E-2,3.7361383E-2,5.156162E-2,7.204552E-3,4.0473804E-2,5.1407643E-2,4.0257797E-2,4.7929935E-2,3.7251327E-2,4.598308E-2,5.551327E-2],"categories":[],"categories_nodes":[],"categories_segments":[],"categories_sizes":[],"default_left":[0,0,0,0,0,0,0,0,0,0,0,0,0,0,0,0,0,0,0,0,0,0,0,0,0,0,0,0,0,0,0,0,0,0,0,0,0,0,0,0,0,0,0,0,0,0,0,0,0,0,0,0,0,0,0,0,0,0,0,0,0,0,0,0,0,0,0,0,0,0,0,0,0,0,0,0,0,0,0,0,0,0,0,0,0,0,0,0,0,0,0,0,0,0,0,0,0,0,0,0,0,0,0,0,0,0,0,0,0,0,0,0,0],"id":6,"left_children":[1,3,5,7,9,11,13,15,17,19,21,23,25,27,-1,29,31,33,35,37,39,41,43,45,47,49,51,53,55,57,59,61,63,65,67,69,71,73,75,77,79,81,83,85,87,89,91,93,95,97,99,101,103,105,107,109,111,-1,-1,-1,-1,-1,-1,-1,-1,-1,-1,-1,-1,-1,-1,-1,-1,-1,-1,-1,-1,-1,-1,-1,-1,-1,-1,-1,-1,-1,-1,-1,-1,-1,-1,-1,-1,-1,-1,-1,-1,-1,-1,-1,-1,-1,-1,-1,-1,-1,-1,-1,-1,-1,-1,-1,-1],"loss_changes":[7.070265E3,1.325593E3,3.723457E2,7.511118E2,4.1622595E2,2.3166504E2,3.4318604E1,4.5716162E2,4.9927147E1,1.5962448E2,2.942215E1,7.901849E1,2.3236328E1,6.0561523E0,0E0,1.58203125E1,3.1271484E1,1.75588E1,1.5760325E1,4.937732E1,2.5063957E1,1.4534908E1,1.1733719E1,2.5000011E1,5.7641174E1,8.112625E0,1.8105835E1,3.7215729E0,4.368042E0,8.432251E0,1.4632324E1,8.693665E0,2.9578827E1,1.1916214E1,1.2551342E1,1.9662874E1,1.273024E1,2.9807617E1,3.6484665E1,9.992779E0,1.7713263E1,7.2258224E0,1.1492012E1,6.1333685E0,4.4102173E0,1.05403385E1,2.0769096E1,3.285251E1,4.0692444E1,3.2540722E0,5.070221E0,1.5996201E1,1.5802734E1,6.8129387E0,2.019699E0,1.6893768E0,3.4956055E0,0E0,0E0,0E0,0E0,0E0,0E0,0E0,0E0,0E0,0E0,0E0,0E0,0E0,0E0,0E0,0E0,0E0,0E0,0E0,0E0,0E0,0E0,0E0,0E0,0E0,0E0,0E0,0E0,0E0,0E0,0E0,0E0,0E0,0E0,0E0,0E0,0E0,0E0,0E0,0E0,0E0,0E0,0E0,0E0,0E0,0E0,0E0,0E0,0E0,0E0,0E0,0E0,0E0,0E0,0E0,0E0],"parents":[2147483647,0,0,1,1,2,2,3,3,4,4,5,5,6,6,7,7,8,8,9,9,10,10,11,11,12,12,13,13,15,15,16,16,17,17,18,18,19,19,20,20,21,21,22,22,23,23,24,24,25,25,26,26,27,27,28,28,29,29,30,30,31,31,32,32,33,33,34,34,35,35,36,36,37,37,38,38,39,39,40,40,41,41,42,42,43,43,44,44,45,45,46,46,47,47,48,48,49,49,50,50,51,51,52,52,53,53,54,54,55,55,56,56],"right_children":[2,4,6,8,10,12,14,16,18,20,22,24,26,28,-1,30,32,34,36,38,40,42,44,46,48,50,52,54,56,58,60,62,64,66,68,70,72,74,76,78,80,82,84,86,88,90,92,94,96,98,100,102,104,106,108,110,112,-1,-1,-1,-1,-1,-1,-1,-1,-1,-1,-1,-1,-1,-1,-1,-1,-1,-1,-1,-1,-1,-1,-1,-1,-1,-1,-1,-1,-1,-1,-1,-1,-1,-1,-1,-1,-1,-1,-1,-1,-1,-1,-1,-1,-1,-1,-1,-1,-1,-1,-1,-1,-1,-1,-1,-1],"split_conditions":[2E0,1E0,1E0,1E0,1E0,1E0,1E0,1E0,1E0,1E0,1E0,1E0,1E0,1E0,6.416543E-2,1E0,1E0,1E0,2E0,1E0,1E0,1E0,1E0,1E0,1E0,1E0,1E0,1E0,1E0,2E0,2E0,1E0,1E0,1E0,1E0,3E0,1E0,1E0,1E0,2E0,1E0,2E0,2E0,2.1E1,2E0,1E0,1E0,1E0,1E0,1E0,1E0,1E0,1E0,1E0,2.7E1,1.3E1,1E0,-8.052927E-2,-6.8588436E-2,-7.104189E-2,-6.080417E-2,-5.9476227E-2,-4.1461386E-2,-4.3079667E-2,-2.3439264E-2,-4.8304223E-2,-2.3345647E-2,-2.6202315E-2,-9.730284E-3,4.888996E-3,-2.5783872E-2,-8.871841E-3,2.4844317E-2,-5.427862E-2,-2.9785875E-2,-3.256046E-2,-1.46817705E-2,-2.035947E-2,-4.144369E-4,-7.457224E-3,1.0418231E-2,-4.305561E-3,1.8412288E-2,1.4851539E-2,3.204977E-2,5.0096747E-2,1.2653405E-2,3.6893815E-2,5.401156E-2,-1.362777E-2,5.11777E-3,3.0289895E-3,2.0110957E-2,-3.108571E-4,2.0757003E-2,1.9271469E-2,3.3973124E-2,1.0079354E-2,2.699835E-2,2.659604E-2,3.984337E-2,1.862937E-2,4.147978E-2,3.7361383E-2,5.156162E-2,7.204552E-3,4.0473804E-2,5.1407643E-2,4.0257797E-2,4.7929935E-2,3.7251327E-2,4.598308E-2,5.551327E-2],"split_indices":[0,0,2,2,2,1,1,1,1,1,1,8,17,14,0,12,15,6,8,15,14,14,18,7,12,14,6,8,13,14,7,11,12,7,8,5,6,14,13,17,7,17,13,3,8,12,15,6,14,6,18,8,7,15,3,4,17,0,0,0,0,0,0,0,0,0,0,0,0,0,0,0,0,0,0,0,0,0,0,0,0,0,0,0,0,0,0,0,0,0,0,0,0,0,0,0,0,0,0,0,0,0,0,0,0,0,0,0,0,0,0,0,0],"split_type":[0,0,0,0,0,0,0,0,0,0,0,0,0,0,0,0,0,0,0,0,0,0,0,0,0,0,0,0,0,0,0,0,0,0,0,0,0,0,0,0,0,0,0,0,0,0,0,0,0,0,0,0,0,0,0,0,0,0,0,0,0,0,0,0,0,0,0,0,0,0,0,0,0,0,0,0,0,0,0,0,0,0,0,0,0,0,0,0,0,0,0,0,0,0,0,0,0,0,0,0,0,0,0,0,0,0,0,0,0,0,0,0,0],"sum_hessian":[1.7166756E4,8.773291E3,8.393465E3,5.0393853E3,3.7339058E3,6.607648E3,1.7858165E3,3.8765298E3,1.1628557E3,2.9098335E3,8.2407227E2,4.5198467E3,2.0878015E3,1.241599E3,5.442175E2,2.5652263E3,1.3113035E3,7.8793243E2,3.7492325E2,1.9792148E3,9.306186E2,5.6850525E2,2.55567E2,1.2582516E3,3.261595E3,5.606504E2,1.5271512E3,3.1386282E2,9.2773615E2,8.290999E2,1.7361263E3,3.7369943E2,9.37604E2,2.3132591E2,5.566065E2,2.340856E2,1.4083765E2,6.0206494E2,1.3771499E3,2.6831992E2,6.6229865E2,1.5356601E2,4.1493924E2,7.292401E1,1.8264299E2,3.7212592E2,8.861257E2,9.380343E2,2.3235605E3,1.5116812E2,4.0948227E2,4.0524078E2,1.1219104E3,8.578417E1,2.2807864E2,2.4394466E2,6.837915E2,5.4015466E2,2.8894525E2,1.1382537E3,5.978727E2,9.9437225E1,2.742622E2,2.7253754E2,6.6506647E2,6.9925446E1,1.6140047E2,1.6442274E2,3.9218378E2,1.5694115E2,7.714446E1,3.7700367E1,1.0313728E2,1.7938452E2,4.2268042E2,4.052835E2,9.718664E2,1.6848766E2,9.983225E1,1.9622261E2,4.6607608E2,1.0130681E2,5.225921E1,2.5552803E2,1.5941121E2,1.2727019E1,6.019699E1,1.1047609E2,7.216691E1,1.027734E2,2.6935254E2,2.4700514E2,6.3912054E2,2.5340001E2,6.8463434E2,6.6384827E2,1.6597123E3,4.0353954E1,1.1081417E2,1.0726503E2,3.0221722E2,1.06247696E2,2.989931E2,2.733945E2,8.485159E2,2.0705462E1,6.507871E1,1.112287E2,1.1684994E2,1.6372534E2,8.02193E1,1.6806148E2,5.1573004E2],"tree_param":{"num_deleted":"0","num_feature":"20","num_nodes":"113","size_leaf_vector":"1"}},{"base_weights":[9.743001E-3,-5.865712E-1,6.4121294E-1,-9.0419686E-1,-1.5760218E-1,5.341706E-1,1.0417418E0,-1.1053588E0,-2.3432517E-1,-3.2569456E-1,4.4187537E-1,4.1061676E-1,8.037491E-1,9.478605E-1,6.278209E-2,-1.3412591E0,-6.4585567E-1,-3.692858E-1,5.067785E-2,-4.7721124E-1,-1.9831865E-3,3.1850815E-1,7.1635824E-1,1.9501543E-1,4.9014485E-1,6.263789E-1,8.701217E-1,8.2597274E-1,9.940834E-1,-1.4611148E0,-1.2842331E0,-8.8063264E-1,-5.4473937E-1,-5.877562E-1,-2.7740625E-1,-1.1388558E-1,2.9669276E-1,-7.176346E-1,-3.7491038E-1,-2.5680774E-1,9.9171706E-2,7.226421E-2,4.154298E-1,3.791E-1,8.496176E-1,-3.796258E-2,2.856612E-1,2.6819897E-1,5.745336E-1,4.1926584E-1,7.0705473E-1,6.9478303E-1,9.34405E-1,7.0989376E-1,9.9027383E-1,8.643887E-1,1.0391927E0,-7.666516E-2,-6.579342E-2,-6.756214E-2,-5.7772554E-2,-5.394093E-2,-2.7268607E-2,-4.0933903E-2,-2.1328775E-2,-4.5610428E-2,-2.2101598E-2,-1.7507765E-2,4.209362E-4,-2.307788E-2,1.0950667E-3,2.534907E-2,2.3189883E-3,-4.0959816E-2,-2.6450494E-2,-3.351105E-2,-1.2741513E-2,-2.8726626E-2,-6.2850798E-3,-2.077155E-3,1.669149E-2,-1.4909192E-2,1.0161365E-2,7.5141005E-3,2.5302997E-2,-2.0771148E-3,2.8778171E-2,2.7670357E-2,4.714411E-2,1.8736523E-2,-7.749986E-3,1.8303139E-3,1.8748632E-2,8.734083E-4,1.8297913E-2,1.8343747E-2,3.2647647E-2,-1.4566109E-3,2.861994E-2,2.460969E-2,3.9023776E-2,2.298767E-2,3.8921908E-2,3.8307026E-2,4.9752373E-2,4.3790583E-2,2.5040109E-2,3.4767983E-3,5.077648E-2,3.3251848E-2,4.642997E-2,4.46984E-2,5.4260522E-2],"categories":[],"categories_nodes":[],"categories_segments":[],"categories_sizes":[],"default_left":[0,0,0,0,0,0,0,0,0,0,0,0,0,0,0,0,0,0,0,0,0,0,0,0,0,0,0,0,0,0,0,0,0,0,0,0,0,0,0,0,0,0,0,0,0,0,0,0,0,0,0,0,0,0,0,0,0,0,0,0,0,0,0,0,0,0,0,0,0,0,0,0,0,0,0,0,0,0,0,0,0,0,0,0,0,0,0,0,0,0,0,0,0,0,0,0,0,0,0,0,0,0,0,0,0,0,0,0,0,0,0,0,0],"id":7,"left_children":[1,3,5,7,9,11,13,15,17,19,21,23,25,27,-1,29,31,33,35,37,39,41,43,45,47,49,51,53,55,57,59,61,63,65,67,69,71,73,75,77,79,81,83,85,87,89,91,93,95,97,99,101,103,105,107,109,111,-1,-1,-1,-1,-1,-1,-1,-1,-1,-1,-1,-1,-1,-1,-1,-1,-1,-1,-1,-1,-1,-1,-1,-1,-1,-1,-1,-1,-1,-1,-1,-1,-1,-1,-1,-1,-1,-1,-1,-1,-1,-1,-1,-1,-1,-1,-1,-1,-1,-1,-1,-1,-1,-1,-1,-1],"loss_changes":[6.426578E3,1.1958386E3,3.548247E2,6.793257E2,3.765664E2,2.1760132E2,3.3892456E1,4.1952148E2,4.486705E1,1.4312341E2,2.7487473E1,7.686963E1,2.3651001E1,6.0423584E0,0E0,1.5632324E1,3.0798096E1,1.572261E1,1.5239191E1,4.8619354E1,2.4033148E1,1.3489922E1,1.1048401E1,2.5590137E1,6.1251038E1,9.114746E0,1.6179565E1,5.7980347E0,4.2404785E0,6.5655518E0,1.3489502E1,2.5657196E1,2.9545013E1,1.0632065E1,1.1626415E1,1.066842E1,7.914995E0,1.0911804E1,4.934961E1,1.0963865E1,2.2052433E1,7.881474E0,9.686996E0,6.094674E0,4.465744E0,1.6487137E1,1.9384453E1,2.2177017E1,3.8427185E1,1.1027012E1,5.98732E0,7.5940094E0,1.0356079E1,6.6135864E0,3.1521606E0,2.35997E0,3.3519287E0,0E0,0E0,0E0,0E0,0E0,0E0,0E0,0E0,0E0,0E0,0E0,0E0,0E0,0E0,0E0,0E0,0E0,0E0,0E0,0E0,0E0,0E0,0E0,0E0,0E0,0E0,0E0,0E0,0E0,0E0,0E0,0E0,0E0,0E0,0E0,0E0,0E0,0E0,0E0,0E0,0E0,0E0,0E0,0E0,0E0,0E0,0E0,0E0,0E0,0E0,0E0,0E0,0E0,0E0,0E0,0E0],"parents":[2147483647,0,0,1,1,2,2,3,3,4,4,5,5,6,6,7,7,8,8,9,9,10,10,11,11,12,12,13,13,15,15,16,16,17,17,18,18,19,19,20,20,21,21,22,22,23,23,24,24,25,25,26,26,27,27,28,28,29,29,30,30,31,31,32,32,33,33,34,34,35,35,36,36,37,37,38,38,39,39,40,40,41,41,42,42,43,43,44,44,45,45,46,46,47,47,48,48,49,49,50,50,51,51,52,52,53,53,54,54,55,55,56,56],"right_children":[2,4,6,8,10,12,14,16,18,20,22,24,26,28,-1,30,32,34,36,38,40,42,44,46,48,50,52,54,56,58,60,62,64,66,68,70,72,74,76,78,80,82,84,86,88,90,92,94,96,98,100,102,104,106,108,110,112,-1,-1,-1,-1,-1,-1,-1,-1,-1,-1,-1,-1,-1,-1,-1,-1,-1,-1,-1,-1,-1,-1,-1,-1,-1,-1,-1,-1,-1,-1,-1,-1,-1,-1,-1,-1,-1,-1,-1,-1,-1,-1,-1,-1,-1,-1,-1,-1,-1,-1,-1,-1,-1,-1,-1,-1],"split_conditions":[2E0,1E0,1E0,1E0,1E0,1E0,1E0,1E0,1E0,1E0,1E0,1E0,1E0,1E0,6.278209E-2,1E0,1E0,1E0,2E0,1E0,1E0,1E0,1E0,1E0,1E0,1E0,1E0,2E0,1E0,2E0,2E0,2E0,1E0,1E0,1E0,1E0,1E0,2E0,1E0,1E0,2E0,1E0,1E0,1E0,1E0,4E0,1E0,1E0,1E0,1E0,1E0,1E0,1E0,1E0,1.91E1,1E0,1E0,-7.666516E-2,-6.579342E-2,-6.756214E-2,-5.7772554E-2,-5.394093E-2,-2.7268607E-2,-4.0933903E-2,-2.1328775E-2,-4.5610428E-2,-2.2101598E-2,-1.7507765E-2,4.209362E-4,-2.307788E-2,1.0950667E-3,2.534907E-2,2.3189883E-3,-4.0959816E-2,-2.6450494E-2,-3.351105E-2,-1.2741513E-2,-2.8726626E-2,-6.2850798E-3,-2.077155E-3,1.669149E-2,-1.4909192E-2,1.0161365E-2,7.5141005E-3,2.5302997E-2,-2.0771148E-3,2.8778171E-2,2.7670357E-2,4.714411E-2,1.8736523E-2,-7.749986E-3,1.8303139E-3,1.8748632E-2,8.734083E-4,1.8297913E-2,1.8343747E-2,3.2647647E-2,-1.4566109E-3,2.861994E-2,2.460969E-2,3.9023776E-2,2.298767E-2,3.8921908E-2,3.8307026E-2,4.9752373E-2,4.3790583E-2,2.5040109E-2,3.4767983E-3,5.077648E-2,3.3251848E-2,4.642997E-2,4.46984E-2,5.4260522E-2],"split_indices":[0,0,2,2,2,1,1,1,1,1,1,17,13,7,0,18,17,6,18,17,6,17,18,15,7,8,17,14,13,8,17,6,18,7,9,15,16,18,12,13,7,13,12,17,14,4,18,18,12,6,14,7,18,19,3,8,17,0,0,0,0,0,0,0,0,0,0,0,0,0,0,0,0,0,0,0,0,0,0,0,0,0,0,0,0,0,0,0,0,0,0,0,0,0,0,0,0,0,0,0,0,0,0,0,0,0,0,0,0,0,0,0,0],"split_type":[0,0,0,0,0,0,0,0,0,0,0,0,0,0,0,0,0,0,0,0,0,0,0,0,0,0,0,0,0,0,0,0,0,0,0,0,0,0,0,0,0,0,0,0,0,0,0,0,0,0,0,0,0,0,0,0,0,0,0,0,0,0,0,0,0,0,0,0,0,0,0,0,0,0,0,0,0,0,0,0,0,0,0,0,0,0,0,0,0,0,0,0,0,0,0,0,0,0,0,0,0,0,0,0,0,0,0,0,0,0,0,0,0],"sum_hessian":[1.7064795E4,8.776746E3,8.288049E3,5.0421963E3,3.7345503E3,6.5420137E3,1.7460352E3,3.87722E3,1.1649763E3,2.9170667E3,8.174834E2,4.487716E3,2.0542976E3,1.217223E3,5.2881213E2,2.5606907E3,1.3165293E3,7.903957E2,3.7458054E2,1.9866971E3,9.3036957E2,5.654848E2,2.5199858E2,1.2102286E3,3.277487E3,5.6223956E2,1.4920581E3,3.3987012E2,8.773529E2,8.1761926E2,1.7430714E3,3.9400314E2,9.225261E2,2.3240004E2,5.5799567E2,2.2476715E2,1.4981339E2,5.9122015E2,1.395477E3,2.6393597E2,6.664336E2,1.6020523E2,4.052796E2,7.2459625E1,1.7953896E2,3.3914313E2,8.710855E2,9.040293E2,2.3734578E3,1.5934976E2,4.028898E2,4.034418E2,1.0886163E3,2.0227982E2,1.3759032E2,2.3160944E2,6.4574347E2,5.397852E2,2.7783408E2,1.1402622E3,6.028092E2,2.462293E2,1.4777385E2,2.7622552E2,6.463006E2,7.039872E1,1.6200131E2,4.446077E2,1.13387985E2,6.24555E1,1.6231166E2,8.085853E1,6.8954865E1,3.821274E2,2.0909274E2,4.0207678E2,9.9340027E2,7.610928E1,1.8782669E2,4.1712427E2,2.4930934E2,4.151035E1,1.1869488E2,1.0391721E2,3.013624E2,2.3319489E1,4.914014E1,4.465317E1,1.3488579E2,7.44429E1,2.6470023E2,2.3029416E2,6.407913E2,2.5393118E2,6.5009814E2,6.5216583E2,1.721292E3,4.0772125E1,1.1857763E2,1.0457167E2,2.983181E2,1.0760914E2,2.9583267E2,2.9200998E2,7.966063E2,1.11005974E2,9.127385E1,3.7735367E0,1.3381677E2,5.9192947E1,1.7241649E2,1.602973E2,4.8544617E2],"tree_param":{"num_deleted":"0","num_feature":"20","num_nodes":"113","size_leaf_vector":"1"}},{"base_weights":[9.460111E-3,-5.5757153E-1,6.17276E-1,-8.597983E-1,-1.4967951E-1,5.127528E-1,1.013531E0,-1.0518486E0,-2.222801E-1,-3.0877393E-1,4.2341936E-1,3.929532E-1,7.76577E-1,9.195254E-1,6.1488546E-2,-1.2793182E0,-6.1178917E-1,-3.498794E-1,4.8240248E-2,-4.5191386E-1,-1.887975E-3,3.042473E-1,6.9099915E-1,1.8746205E-1,4.7359672E-1,5.929694E-1,8.3882034E-1,7.899281E-1,9.626659E-1,-1.399103E0,-1.2216326E0,-8.3735806E-1,-5.095226E-1,-5.69587E-1,-2.6106945E-1,-2.7542347E-1,1.7043401E-1,-6.8387896E-1,-3.524601E-1,-2.4529378E-1,9.738505E-2,5.0966058E-2,3.9820957E-1,3.6287734E-1,8.221044E-1,-8.7416045E-2,2.9360563E-1,2.663805E-1,5.525609E-1,3.636182E-1,6.737764E-1,6.563494E-1,9.0194905E-1,6.909757E-1,9.388792E-1,8.3473825E-1,1.0073581E0,-7.404937E-2,-6.212584E-2,-6.4510375E-2,-5.4487165E-2,-3.5576954E-2,-5.4143675E-2,-3.8496327E-2,-1.9846795E-2,-4.087573E-2,-7.9133725E-3,-2.4441814E-2,-8.085663E-3,-8.236637E-3,-6.2778115E-2,-8.307908E-3,1.7196842E-2,-4.984368E-2,-2.7259786E-2,-3.0910105E-2,-1.18706E-2,-1.550234E-2,1.461584E-2,-6.7951567E-3,9.8166475E-3,-4.7708815E-3,1.6700326E-2,1.3148083E-2,3.0049348E-2,7.184715E-3,3.663562E-2,3.436808E-2,5.1947962E-2,-2.0907331E-2,2.1532327E-3,2.0015386E-3,1.989363E-2,-3.949981E-4,1.8814025E-2,1.5903946E-2,3.190145E-2,8.554204E-3,3.3522207E-2,2.7781129E-2,4.2386256E-2,1.7234096E-2,3.8558226E-2,3.4931924E-2,4.8795715E-2,1.749747E-2,4.0707733E-2,3.199428E-2,5.1294442E-2,4.5118354E-2,3.4395687E-2,4.3119382E-2,5.2660014E-2],"categories":[],"categories_nodes":[],"categories_segments":[],"categories_sizes":[],"default_left":[0,0,0,0,0,0,0,0,0,0,0,0,0,0,0,0,0,0,0,0,0,0,0,0,0,0,0,0,0,0,0,0,0,0,0,0,0,0,0,0,0,0,0,0,0,0,0,0,0,0,0,0,0,0,0,0,0,0,0,0,0,0,0,0,0,0,0,0,0,0,0,0,0,0,0,0,0,0,0,0,0,0,0,0,0,0,0,0,0,0,0,0,0,0,0,0,0,0,0,0,0,0,0,0,0,0,0,0,0,0,0,0,0],"id":8,"left_children":[1,3,5,7,9,11,13,15,17,19,21,23,25,27,-1,29,31,33,35,37,39,41,43,45,47,49,51,53,55,57,59,61,63,65,67,69,71,73,75,77,79,81,83,85,87,89,91,93,95,97,99,101,103,105,107,109,111,-1,-1,-1,-1,-1,-1,-1,-1,-1,-1,-1,-1,-1,-1,-1,-1,-1,-1,-1,-1,-1,-1,-1,-1,-1,-1,-1,-1,-1,-1,-1,-1,-1,-1,-1,-1,-1,-1,-1,-1,-1,-1,-1,-1,-1,-1,-1,-1,-1,-1,-1,-1,-1,-1,-1,-1],"loss_changes":[5.8446265E3,1.0814209E3,3.3847314E2,6.1674805E2,3.4069238E2,2.0445154E2,3.3574707E1,3.8684033E2,4.033008E1,1.2845053E2,2.5683441E1,7.3776E1,2.2611572E1,5.914734E0,0E0,1.5923828E1,3.0057251E1,1.533799E1,1.4885624E1,4.576169E1,2.2522465E1,1.3392597E1,1.043158E1,3.672677E1,5.2220215E1,9.306091E0,1.6775635E1,3.828354E0,4.2543945E0,8.707031E0,1.4243164E1,1.1915375E1,2.642656E1,2.3083351E1,1.2753666E1,1.0990525E1,1.5999214E1,2.5384674E1,4.2586517E1,9.490503E0,1.5309579E1,6.398065E0,1.1112106E1,5.8121176E0,4.470192E0,1.5173283E1,2.3983345E1,2.6680119E1,4.6219788E1,7.9453773E0,7.337219E0,1.3733582E1,1.6123291E1,7.540909E0,2.4252777E0,1.7282715E0,3.4487915E0,0E0,0E0,0E0,0E0,0E0,0E0,0E0,0E0,0E0,0E0,0E0,0E0,0E0,0E0,0E0,0E0,0E0,0E0,0E0,0E0,0E0,0E0,0E0,0E0,0E0,0E0,0E0,0E0,0E0,0E0,0E0,0E0,0E0,0E0,0E0,0E0,0E0,0E0,0E0,0E0,0E0,0E0,0E0,0E0,0E0,0E0,0E0,0E0,0E0,0E0,0E0,0E0,0E0,0E0,0E0,0E0],"parents":[2147483647,0,0,1,1,2,2,3,3,4,4,5,5,6,6,7,7,8,8,9,9,10,10,11,11,12,12,13,13,15,15,16,16,17,17,18,18,19,19,20,20,21,21,22,22,23,23,24,24,25,25,26,26,27,27,28,28,29,29,30,30,31,31,32,32,33,33,34,34,35,35,36,36,37,37,38,38,39,39,40,40,41,41,42,42,43,43,44,44,45,45,46,46,47,47,48,48,49,49,50,50,51,51,52,52,53,53,54,54,55,55,56,56],"right_children":[2,4,6,8,10,12,14,16,18,20,22,24,26,28,-1,30,32,34,36,38,40,42,44,46,48,50,52,54,56,58,60,62,64,66,68,70,72,74,76,78,80,82,84,86,88,90,92,94,96,98,100,102,104,106,108,110,112,-1,-1,-1,-1,-1,-1,-1,-1,-1,-1,-1,-1,-1,-1,-1,-1,-1,-1,-1,-1,-1,-1,-1,-1,-1,-1,-1,-1,-1,-1,-1,-1,-1,-1,-1,-1,-1,-1,-1,-1,-1,-1,-1,-1,-1,-1,-1,-1,-1,-1,-1,-1,-1,-1,-1,-1],"split_conditions":[2E0,1E0,1E0,1E0,1E0,1E0,1E0,1E0,1E0,1E0,1E0,1E0,1E0,1E0,6.1488546E-2,1E0,1E0,1E0,1E0,1E0,1E0,1E0,1E0,1E0,1E0,1E0,1E0,2E0,1E0,2E0,2E0,2.93E1,1E0,2E0,1E0,3.31E1,1E0,1E0,1E0,1.8E1,1E0,2E0,2.88E1,2E0,1E0,1E0,1E0,1E0,1E0,2E0,2E0,1E0,1E0,1E0,1E0,1.3E1,1E0,-7.404937E-2,-6.212584E-2,-6.4510375E-2,-5.4487165E-2,-3.5576954E-2,-5.4143675E-2,-3.8496327E-2,-1.9846795E-2,-4.087573E-2,-7.9133725E-3,-2.4441814E-2,-8.085663E-3,-8.236637E-3,-6.2778115E-2,-8.307908E-3,1.7196842E-2,-4.984368E-2,-2.7259786E-2,-3.0910105E-2,-1.18706E-2,-1.550234E-2,1.461584E-2,-6.7951567E-3,9.8166475E-3,-4.7708815E-3,1.6700326E-2,1.3148083E-2,3.0049348E-2,7.184715E-3,3.663562E-2,3.436808E-2,5.1947962E-2,-2.0907331E-2,2.1532327E-3,2.0015386E-3,1.989363E-2,-3.949981E-4,1.8814025E-2,1.5903946E-2,3.190145E-2,8.554204E-3,3.3522207E-2,2.7781129E-2,4.2386256E-2,1.7234096E-2,3.8558226E-2,3.4931924E-2,4.8795715E-2,1.749747E-2,4.0707733E-2,3.199428E-2,5.1294442E-2,4.5118354E-2,3.4395687E-2,4.3119382E-2,5.2660014E-2],"split_indices":[0,0,2,2,2,1,1,1,1,1,1,14,7,14,0,12,13,12,12,14,14,14,18,15,6,15,6,18,13,14,7,3,14,15,18,3,17,15,17,4,7,17,3,6,10,13,7,12,18,6,18,18,17,8,7,4,17,0,0,0,0,0,0,0,0,0,0,0,0,0,0,0,0,0,0,0,0,0,0,0,0,0,0,0,0,0,0,0,0,0,0,0,0,0,0,0,0,0,0,0,0,0,0,0,0,0,0,0,0,0,0,0,0],"split_type":[0,0,0,0,0,0,0,0,0,0,0,0,0,0,0,0,0,0,0,0,0,0,0,0,0,0,0,0,0,0,0,0,0,0,0,0,0,0,0,0,0,0,0,0,0,0,0,0,0,0,0,0,0,0,0,0,0,0,0,0,0,0,0,0,0,0,0,0,0,0,0,0,0,0,0,0,0,0,0,0,0,0,0,0,0,0,0,0,0,0,0,0,0,0,0,0,0,0,0,0,0,0,0,0,0,0,0,0,0,0,0,0,0],"sum_hessian":[1.6956111E4,8.77241E3,8.1837017E3,5.0382334E3,3.734177E3,6.477402E3,1.7062998E3,3.8713508E3,1.1668823E3,2.9231584E3,8.110186E2,4.456324E3,2.0210775E3,1.1929457E3,5.133541E2,2.5508784E3,1.3204724E3,7.926915E2,3.7419086E2,1.9930658E3,9.3009265E2,5.625933E2,2.4842531E2,1.2568972E3,3.199427E3,5.143515E2,1.506726E3,3.0275558E2,8.901901E2,8.2158746E2,1.729291E3,4.096724E2,9.1080005E2,2.2662614E2,5.6606537E2,1.0220881E2,2.7198206E2,5.963255E2,1.3967404E3,2.6901892E2,6.610737E2,1.526522E2,4.0994113E2,7.1998886E1,1.7642642E2,3.5019086E2,9.0670636E2,8.840072E2,2.31542E3,1.3543933E2,3.7891217E2,3.9021698E2,1.116509E3,1.8529674E2,1.17458824E2,2.3556967E2,6.546205E2,5.339231E2,2.8766437E2,1.1319562E3,5.973348E2,2.7344073E2,1.3623166E2,2.731614E2,6.376387E2,1.4078114E2,8.5845E1,1.7073885E2,3.953265E2,9.2886826E1,9.321983E0,9.25259E1,1.7945616E2,1.8119589E2,4.1512964E2,4.2067572E2,9.760646E2,2.4047765E2,2.8541267E1,1.9677245E2,4.643013E2,1.01052475E2,5.159973E1,2.4729665E2,1.626445E2,4.607879E1,2.59201E1,1.1138624E2,6.504018E1,9.844833E1,2.5174251E2,2.645968E2,6.4210956E2,2.5314766E2,6.3085956E2,6.197778E2,1.6956421E3,8.4176155E1,5.1263172E1,2.2814203E2,1.5077013E2,1.0612929E2,2.8408768E2,3.006229E2,8.158861E2,5.0188538E1,1.351082E2,2.8359715E1,8.909911E1,1.577586E2,7.781107E1,1.6203017E2,4.925903E2],"tree_param":{"num_deleted":"0","num_feature":"20","num_nodes":"113","size_leaf_vector":"1"}},{"base_weights":[9.178275E-3,-5.3043234E-1,5.9423065E-1,-8.185774E-1,-1.4217214E-1,4.9214682E-1,9.865464E-1,-1.002476E0,-2.1091822E-1,-2.9283002E-1,4.0578935E-1,3.7598905E-1,7.503915E-1,8.923265E-1,1.2054845E0,-1.2228256E0,-5.7978535E-1,-3.3154833E-1,4.573483E-2,-4.2818207E-1,-1.7764579E-3,2.9068062E-1,6.665729E-1,1.6841541E-1,4.5657155E-1,5.735985E-1,8.170033E-1,7.704558E-1,9.38802E-1,1.1148448E0,6.1846245E-2,-1.34052E0,-1.1663519E0,-8.107062E-1,-4.869452E-1,-5.430285E-1,-2.4184507E-1,-1.0483028E-1,2.9651165E-1,-6.5983605E-1,-3.329585E-1,-2.4281129E-1,9.432288E-2,3.6749225E-2,3.7939546E-1,3.4749097E-1,7.955322E-1,-4.4758093E-2,2.5812867E-1,2.4495706E-1,5.3568614E-1,3.6894977E-1,6.538851E-1,6.349333E-1,8.8085407E-1,5.4397494E-1,8.5308033E-1,8.096447E-1,9.8416173E-1,9.161882E-1,1.1704624E0,-7.1068086E-2,-5.933798E-2,-6.1774265E-2,-5.187568E-2,-4.4815738E-2,-2.7340388E-2,-3.7749793E-2,-1.8897058E-2,-3.3890992E-2,-1.610995E-2,-1.7942732E-2,-2.5519615E-3,4.3858946E-3,-2.4469407E-2,-8.630912E-3,2.3490326E-2,-3.867114E-2,-2.3134654E-2,-2.9703155E-2,-1.11300675E-2,-2.7107954E-2,-5.939151E-3,-8.95169E-3,1.0302707E-2,-8.460931E-3,1.8968115E-2,7.052655E-3,2.3330977E-2,4.747147E-2,1.0445324E-2,3.263562E-2,5.0174512E-2,-2.027053E-2,4.7828155E-3,-7.727339E-5,1.793356E-2,-9.705489E-5,1.6986998E-2,1.6102131E-2,3.0945227E-2,-2.8753495E-3,2.5875106E-2,2.2069285E-2,3.635471E-2,1.9809337E-2,3.6667343E-2,3.569239E-2,4.7065835E-2,3.8160194E-2,1.3985236E-2,3.3864867E-2,4.581604E-2,3.06755E-2,4.3673974E-2,4.195158E-2,5.1532384E-2,2.2669224E-2,5.3788185E-2,4.8438832E-2,6.155162E-2],"categories":[],"categories_nodes":[],"categories_segments":[],"categories_sizes":[],"default_left":[0,0,0,0,0,0,0,0,0,0,0,0,0,0,0,0,0,0,0,0,0,0,0,0,0,0,0,0,0,0,0,0,0,0,0,0,0,0,0,0,0,0,0,0,0,0,0,0,0,0,0,0,0,0,0,0,0,0,0,0,0,0,0,0,0,0,0,0,0,0,0,0,0,0,0,0,0,0,0,0,0,0,0,0,0,0,0,0,0,0,0,0,0,0,0,0,0,0,0,0,0,0,0,0,0,0,0,0,0,0,0,0,0,0,0,0,0,0,0,0,0],"id":9,"left_children":[1,3,5,7,9,11,13,15,17,19,21,23,25,27,29,31,33,35,37,39,41,43,45,47,49,51,53,55,57,59,-1,61,63,65,67,69,71,73,75,77,79,81,83,85,87,89,91,93,95,97,99,101,103,105,107,109,111,113,115,117,119,-1,-1,-1,-1,-1,-1,-1,-1,-1,-1,-1,-1,-1,-1,-1,-1,-1,-1,-1,-1,-1,-1,-1,-1,-1,-1,-1,-1,-1,-1,-1,-1,-1,-1,-1,-1,-1,-1,-1,-1,-1,-1,-1,-1,-1,-1,-1,-1,-1,-1,-1,-1,-1,-1,-1,-1,-1,-1,-1,-1],"loss_changes":[5.3177314E3,9.8018115E2,3.2318433E2,5.618198E2,3.083743E2,1.9215149E2,3.3327026E1,3.5887817E2,3.6230305E1,1.15398254E2,2.39906E1,7.396948E1,2.2958008E1,5.902466E0,4.2785645E-2,1.5297852E1,2.8008362E1,1.4966377E1,1.4186E1,4.3886322E1,2.1584219E1,1.2617455E1,9.843605E0,2.3717056E1,5.3246155E1,8.758606E0,1.6210327E1,5.6837006E0,4.1377563E0,4.592743E-1,0E0,8.454956E0,1.4056152E1,8.058777E0,2.7397736E1,6.8132324E0,1.2498215E1,1.744244E1,1.1535963E1,1.2662476E1,4.075627E1,9.797196E0,2.0385101E1,1.0386866E1,8.570614E0,5.8548994E0,4.52404E0,1.867437E1,2.2781113E1,2.0347313E1,4.1045044E1,9.952799E0,5.779175E0,8.593613E0,1.008606E1,5.034136E0,2.0357056E0,2.2756805E0,3.3095093E0,2.091526E0,8.642578E-2,0E0,0E0,0E0,0E0,0E0,0E0,0E0,0E0,0E0,0E0,0E0,0E0,0E0,0E0,0E0,0E0,0E0,0E0,0E0,0E0,0E0,0E0,0E0,0E0,0E0,0E0,0E0,0E0,0E0,0E0,0E0,0E0,0E0,0E0,0E0,0E0,0E0,0E0,0E0,0E0,0E0,0E0,0E0,0E0,0E0,0E0,0E0,0E0,0E0,0E0,0E0,0E0,0E0,0E0,0E0,0E0,0E0,0E0,0E0,0E0],"parents":[2147483647,0,0,1,1,2,2,3,3,4,4,5,5,6,6,7,7,8,8,9,9,10,10,11,11,12,12,13,13,14,14,15,15,16,16,17,17,18,18,19,19,20,20,21,21,22,22,23,23,24,24,25,25,26,26,27,27,28,28,29,29,31,31,32,32,33,33,34,34,35,35,36,36,37,37,38,38,39,39,40,40,41,41,42,42,43,43,44,44,45,45,46,46,47,47,48,48,49,49,50,50,51,51,52,52,53,53,54,54,55,55,56,56,57,57,58,58,59,59,60,60],"right_children":[2,4,6,8,10,12,14,16,18,20,22,24,26,28,30,32,34,36,38,40,42,44,46,48,50,52,54,56,58,60,-1,62,64,66,68,70,72,74,76,78,80,82,84,86,88,90,92,94,96,98,100,102,104,106,108,110,112,114,116,118,120,-1,-1,-1,-1,-1,-1,-1,-1,-1,-1,-1,-1,-1,-1,-1,-1,-1,-1,-1,-1,-1,-1,-1,-1,-1,-1,-1,-1,-1,-1,-1,-1,-1,-1,-1,-1,-1,-1,-1,-1,-1,-1,-1,-1,-1,-1,-1,-1,-1,-1,-1,-1,-1,-1,-1,-1,-1,-1,-1,-1],"split_conditions":[2E0,1E0,1E0,1E0,1E0,1E0,1E0,1E0,1E0,1E0,1E0,1E0,1E0,1E0,1E0,1E0,1E0,1E0,2E0,1E0,1E0,1E0,1E0,1E0,1E0,1E0,1E0,1E0,1E0,1E0,6.1846245E-2,2E0,2E0,1.5E1,1E0,2E0,2E0,3E0,1E0,2E0,1E0,1E0,1E0,2E0,1E0,2.1E1,2E0,1E0,1E0,1E0,1E0,1E0,1E0,1E0,1E0,1E0,1E0,1E0,1E0,1E0,1E0,-7.1068086E-2,-5.933798E-2,-6.1774265E-2,-5.187568E-2,-4.4815738E-2,-2.7340388E-2,-3.7749793E-2,-1.8897058E-2,-3.3890992E-2,-1.610995E-2,-1.7942732E-2,-2.5519615E-3,4.3858946E-3,-2.4469407E-2,-8.630912E-3,2.3490326E-2,-3.867114E-2,-2.3134654E-2,-2.9703155E-2,-1.11300675E-2,-2.7107954E-2,-5.939151E-3,-8.95169E-3,1.0302707E-2,-8.460931E-3,1.8968115E-2,7.052655E-3,2.3330977E-2,4.747147E-2,1.0445324E-2,3.263562E-2,5.0174512E-2,-2.027053E-2,4.7828155E-3,-7.727339E-5,1.793356E-2,-9.705489E-5,1.6986998E-2,1.6102131E-2,3.0945227E-2,-2.8753495E-3,2.5875106E-2,2.2069285E-2,3.635471E-2,1.9809337E-2,3.6667343E-2,3.569239E-2,4.7065835E-2,3.8160194E-2,1.3985236E-2,3.3864867E-2,4.581604E-2,3.06755E-2,4.3673974E-2,4.195158E-2,5.1532384E-2,2.2669224E-2,5.3788185E-2,4.8438832E-2,6.155162E-2],"split_indices":[0,0,2,2,2,1,1,1,1,1,1,8,13,7,11,12,15,8,8,12,6,13,18,6,17,8,14,15,13,15,0,14,6,4,18,14,17,5,6,7,17,13,17,8,14,3,8,17,12,15,13,6,14,18,17,19,13,8,17,14,7,0,0,0,0,0,0,0,0,0,0,0,0,0,0,0,0,0,0,0,0,0,0,0,0,0,0,0,0,0,0,0,0,0,0,0,0,0,0,0,0,0,0,0,0,0,0,0,0,0,0,0,0,0,0,0,0,0,0,0,0],"split_type":[0,0,0,0,0,0,0,0,0,0,0,0,0,0,0,0,0,0,0,0,0,0,0,0,0,0,0,0,0,0,0,0,0,0,0,0,0,0,0,0,0,0,0,0,0,0,0,0,0,0,0,0,0,0,0,0,0,0,0,0,0,0,0,0,0,0,0,0,0,0,0,0,0,0,0,0,0,0,0,0,0,0,0,0,0,0,0,0,0,0,0,0,0,0,0,0,0,0,0,0,0,0,0,0,0,0,0,0,0,0,0,0,0,0,0,0,0,0,0,0,0],"sum_hessian":[1.684223E4,8.761417E3,8.0808135E3,5.0284644E3,3.7329534E3,6.4140723E3,1.6667411E3,3.8597275E3,1.1687365E3,2.9283037E3,8.046495E2,4.4258105E3,1.9882618E3,1.1688168E3,4.9792435E2,2.5358765E3,1.3238511E3,7.9485364E2,3.7388284E2,1.9984637E3,9.2984E2,5.597104E2,2.449391E2,1.2385363E3,3.1872744E3,5.4675116E2,1.4415106E3,3.275292E2,8.4128754E2,1.3762466E2,3.602997E2,8.1488104E2,1.7209955E3,3.7740393E2,9.464472E2,2.3523091E2,5.5962274E2,2.3398277E2,1.3990007E2,5.8045056E2,1.4180132E3,2.6461365E2,6.6522644E2,1.4528127E2,4.144291E2,7.1564E1,1.733751E2,3.669955E2,8.715407E2,8.68451E2,2.3188235E3,1.5563547E2,3.9111566E2,3.77115E2,1.0643956E3,8.957644E1,2.3795274E2,2.2356322E2,6.1772437E2,3.3924614E1,1.0370005E2,5.2867755E2,2.862035E2,1.1144186E3,6.065769E2,2.8315283E2,9.425109E1,2.7189847E2,6.745487E2,1.4478601E2,9.044489E1,3.463479E2,2.132748E2,1.564301E2,7.755267E1,3.773927E1,1.02160805E2,3.664132E2,2.1403732E2,4.199737E2,9.9803955E2,7.653112E1,1.8808252E2,1.9283719E2,4.7238922E2,9.105067E1,5.4230606E1,1.1173287E2,3.0269623E2,1.2297819E1,5.9266182E1,1.0523875E2,6.813636E1,1.023146E2,2.646809E2,2.435365E2,6.280042E2,2.4118146E2,6.2726953E2,6.5139404E2,1.6674293E3,4.0366425E1,1.1526904E2,1.0201937E2,2.8909628E2,1.1154287E2,2.655721E2,2.8632684E2,7.7806885E2,4.7928635E1,4.1647804E1,6.605533E1,1.7189743E2,5.7500824E1,1.660624E2,1.5448074E2,4.632436E2,9.683001E0,2.4241611E1,2.787528E1,7.582477E1],"tree_param":{"num_deleted":"0","num_feature":"20","num_nodes":"121","size_leaf_vector":"1"}},{"base_weights":[8.911434E-3,-5.049537E-1,5.7209235E-1,-7.8015167E-1,-1.3506645E-1,4.7237447E-1,9.606734E-1,-9.566371E-1,-2.001646E-1,-2.7778548E-1,3.88849E-1,3.5976818E-1,7.251181E-1,8.661002E-1,1.182751E0,-1.1707358E0,-5.497962E-1,-3.1433102E-1,4.3514464E-2,-4.05845E-1,-1.7065397E-3,2.7764168E-1,6.431356E-1,1.5669225E-1,4.390103E-1,5.423791E-1,7.8750265E-1,7.352754E-1,9.0990686E-1,1.0915595E0,6.0724724E-2,-1.2879627E0,-1.1150999E0,-7.722084E-1,-4.543241E-1,-5.2048326E-1,-2.2769885E-1,-2.576996E-1,1.6606393E-1,-6.2474346E-1,-3.0960175E-1,-2.3180701E-1,9.253903E-2,4.117114E-2,3.7142116E-1,3.3300623E-1,7.699244E-1,-8.027109E-2,2.5108218E-1,2.2672988E-1,5.166919E-1,3.1733465E-1,6.223128E-1,6.058988E-1,8.5085684E-1,6.36215E-1,8.8556E-1,7.8341484E-1,9.545874E-1,8.929963E-1,1.1475371E0,-6.7930594E-2,-5.7324924E-2,-5.902026E-2,-4.9499113E-2,-4.8032578E-2,-2.275311E-2,-3.674498E-2,-1.7252734E-2,-4.1301157E-2,-1.916893E-2,-1.4801285E-2,2.0639221E-3,-2.3643928E-2,6.7069526E-3,9.325874E-4,2.2903679E-2,-4.6830308E-2,-2.420045E-2,-2.724109E-2,-1.0549954E-2,-1.8428488E-2,7.759965E-5,-7.7290507E-3,9.264771E-3,-1.5829427E-2,8.569323E-3,6.589236E-3,2.3567835E-2,5.064452E-3,3.3795983E-2,2.3504144E-2,4.3308813E-2,-1.8567642E-2,1.8611785E-3,7.0998556E-4,1.776975E-2,-1.8638108E-3,1.6379584E-2,1.5851265E-2,2.9676884E-2,8.799675E-3,3.7363306E-2,2.5284389E-2,3.977293E-2,1.50739E-2,3.597137E-2,3.24331E-2,4.6269175E-2,1.502525E-2,3.7965428E-2,2.9506598E-2,4.8644025E-2,4.258994E-2,3.1820662E-2,4.046604E-2,5.0052505E-2,2.1876613E-2,5.2628852E-2,4.7257386E-2,6.0437735E-2],"categories":[],"categories_nodes":[],"categories_segments":[],"categories_sizes":[],"default_left":[0,0,0,0,0,0,0,0,0,0,0,0,0,0,0,0,0,0,0,0,0,0,0,0,0,0,0,0,0,0,0,0,0,0,0,0,0,0,0,0,0,0,0,0,0,0,0,0,0,0,0,0,0,0,0,0,0,0,0,0,0,0,0,0,0,0,0,0,0,0,0,0,0,0,0,0,0,0,0,0,0,0,0,0,0,0,0,0,0,0,0,0,0,0,0,0,0,0,0,0,0,0,0,0,0,0,0,0,0,0,0,0,0,0,0,0,0,0,0,0,0],"id":10,"left_children":[1,3,5,7,9,11,13,15,17,19,21,23,25,27,29,31,33,35,37,39,41,43,45,47,49,51,53,55,57,59,-1,61,63,65,67,69,71,73,75,77,79,81,83,85,87,89,91,93,95,97,99,101,103,105,107,109,111,113,115,117,119,-1,-1,-1,-1,-1,-1,-1,-1,-1,-1,-1,-1,-1,-1,-1,-1,-1,-1,-1,-1,-1,-1,-1,-1,-1,-1,-1,-1,-1,-1,-1,-1,-1,-1,-1,-1,-1,-1,-1,-1,-1,-1,-1,-1,-1,-1,-1,-1,-1,-1,-1,-1,-1,-1,-1,-1,-1,-1,-1,-1],"loss_changes":[4.840384E3,8.901438E2,3.0875488E2,5.130928E2,2.7917532E2,1.8052771E2,3.318152E1,3.3421777E2,3.259528E1,1.0372127E2,2.2428444E1,7.0678406E1,2.1881226E1,5.8984375E0,7.446289E-2,1.4986328E1,2.7835815E1,1.4126801E1,1.3867797E1,4.2028778E1,2.0203009E1,1.2358032E1,9.278259E0,2.7655579E1,5.2022278E1,8.819168E0,1.6243652E1,3.793747E0,4.0803833E0,4.7329712E-1,0E0,6.477295E0,1.2844482E1,2.3303696E1,2.8294739E1,9.537556E0,1.0366602E1,9.228632E0,1.1477005E1,2.6366653E1,3.2218033E1,8.639878E0,1.517844E1,7.487734E0,9.502613E0,5.662754E0,4.5381775E0,1.2076973E1,2.1834255E1,2.2615353E1,3.531659E1,7.975665E0,7.045532E0,1.2923218E1,1.5635254E1,7.208145E0,2.359604E0,1.7555695E0,3.4197998E0,2.0213852E0,1.1668396E-1,0E0,0E0,0E0,0E0,0E0,0E0,0E0,0E0,0E0,0E0,0E0,0E0,0E0,0E0,0E0,0E0,0E0,0E0,0E0,0E0,0E0,0E0,0E0,0E0,0E0,0E0,0E0,0E0,0E0,0E0,0E0,0E0,0E0,0E0,0E0,0E0,0E0,0E0,0E0,0E0,0E0,0E0,0E0,0E0,0E0,0E0,0E0,0E0,0E0,0E0,0E0,0E0,0E0,0E0,0E0,0E0,0E0,0E0,0E0,0E0],"parents":[2147483647,0,0,1,1,2,2,3,3,4,4,5,5,6,6,7,7,8,8,9,9,10,10,11,11,12,12,13,13,14,14,15,15,16,16,17,17,18,18,19,19,20,20,21,21,22,22,23,23,24,24,25,25,26,26,27,27,28,28,29,29,31,31,32,32,33,33,34,34,35,35,36,36,37,37,38,38,39,39,40,40,41,41,42,42,43,43,44,44,45,45,46,46,47,47,48,48,49,49,50,50,51,51,52,52,53,53,54,54,55,55,56,56,57,57,58,58,59,59,60,60],"right_children":[2,4,6,8,10,12,14,16,18,20,22,24,26,28,30,32,34,36,38,40,42,44,46,48,50,52,54,56,58,60,-1,62,64,66,68,70,72,74,76,78,80,82,84,86,88,90,92,94,96,98,100,102,104,106,108,110,112,114,116,118,120,-1,-1,-1,-1,-1,-1,-1,-1,-1,-1,-1,-1,-1,-1,-1,-1,-1,-1,-1,-1,-1,-1,-1,-1,-1,-1,-1,-1,-1,-1,-1,-1,-1,-1,-1,-1,-1,-1,-1,-1,-1,-1,-1,-1,-1,-1,-1,-1,-1,-1,-1,-1,-1,-1,-1,-1,-1,-1,-1,-1],"split_conditions":[2E0,1E0,1E0,1E0,1E0,1E0,1E0,1E0,1E0,1E0,1E0,1E0,1E0,1E0,1E0,1E0,1E0,1E0,1E0,1E0,1E0,1E0,1E0,1E0,1E0,1E0,1E0,2E0,1E0,1E0,6.0724724E-2,2E0,2E0,2E0,1E0,1E0,1E0,2E0,1E0,1E0,1E0,2E0,1E0,1E0,1E0,2E0,1E0,1E0,1E0,1E0,1E0,1E0,2E0,1E0,1E0,1E0,1E0,1.3E1,1E0,1E0,1E0,-6.7930594E-2,-5.7324924E-2,-5.902026E-2,-4.9499113E-2,-4.8032578E-2,-2.275311E-2,-3.674498E-2,-1.7252734E-2,-4.1301157E-2,-1.916893E-2,-1.4801285E-2,2.0639221E-3,-2.3643928E-2,6.7069526E-3,9.325874E-4,2.2903679E-2,-4.6830308E-2,-2.420045E-2,-2.724109E-2,-1.0549954E-2,-1.8428488E-2,7.759965E-5,-7.7290507E-3,9.264771E-3,-1.5829427E-2,8.569323E-3,6.589236E-3,2.3567835E-2,5.064452E-3,3.3795983E-2,2.3504144E-2,4.3308813E-2,-1.8567642E-2,1.8611785E-3,7.0998556E-4,1.776975E-2,-1.8638108E-3,1.6379584E-2,1.5851265E-2,2.9676884E-2,8.799675E-3,3.7363306E-2,2.5284389E-2,3.977293E-2,1.50739E-2,3.597137E-2,3.24331E-2,4.6269175E-2,1.502525E-2,3.7965428E-2,2.9506598E-2,4.8644025E-2,4.258994E-2,3.1820662E-2,4.046604E-2,5.0052505E-2,2.1876613E-2,5.2628852E-2,4.7257386E-2,6.0437735E-2],"split_indices":[0,0,2,2,2,1,1,1,1,1,1,7,7,14,11,18,17,6,14,15,14,17,18,18,17,15,6,18,13,15,0,8,17,6,11,7,9,8,10,18,13,17,12,7,8,12,14,13,12,6,8,9,18,18,17,8,7,4,17,14,7,0,0,0,0,0,0,0,0,0,0,0,0,0,0,0,0,0,0,0,0,0,0,0,0,0,0,0,0,0,0,0,0,0,0,0,0,0,0,0,0,0,0,0,0,0,0,0,0,0,0,0,0,0,0,0,0,0,0,0,0],"split_type":[0,0,0,0,0,0,0,0,0,0,0,0,0,0,0,0,0,0,0,0,0,0,0,0,0,0,0,0,0,0,0,0,0,0,0,0,0,0,0,0,0,0,0,0,0,0,0,0,0,0,0,0,0,0,0,0,0,0,0,0,0,0,0,0,0,0,0,0,0,0,0,0,0,0,0,0,0,0,0,0,0,0,0,0,0,0,0,0,0,0,0,0,0,0,0,0,0,0,0,0,0,0,0,0,0,0,0,0,0,0,0,0,0,0,0,0,0,0,0,0,0],"sum_hessian":[1.6723643E4,8.744747E3,7.978896E3,5.0135386E3,3.731208E3,6.35125E3,1.6276459E3,3.84338E3,1.1701589E3,2.932767E3,7.984409E2,4.395377E3,1.9558732E3,1.1449584E3,4.826875E2,2.5169597E3,1.3264202E3,7.966359E2,3.7352304E2,2.0031389E3,9.2962823E2,5.56958E2,2.4148291E2,1.234547E3,3.1608298E3,5.0024164E2,1.4556316E3,2.916764E2,8.53282E2,1.3377345E2,3.4891406E2,8.029558E2,1.7140039E3,3.962428E2,9.301773E2,2.3423538E2,5.624005E2,1.0770134E2,2.658217E2,6.10075E2,1.3930638E3,2.6969894E2,6.599293E2,1.5856525E2,3.9839276E2,7.112802E1,1.7035489E2,3.5171805E2,8.828289E2,8.47845E2,2.312985E3,1.3241417E2,3.6782748E2,3.7920645E2,1.076425E3,1.7895271E2,1.1272368E2,2.2756683E2,6.2571515E2,3.31471E1,1.0062635E2,5.2977515E2,2.7318063E2,1.1206466E3,5.933573E2,2.472825E2,1.489603E2,2.591142E2,6.710631E2,7.099566E1,1.6323972E2,4.483963E2,1.14004234E2,6.938927E1,3.831207E1,1.7735387E2,8.846783E1,1.8794356E2,4.2213147E2,4.1013864E2,9.8292523E2,1.6967787E2,1.00021065E2,1.7992079E2,4.8000854E2,4.1930943E1,1.1663431E2,1.17928795E2,2.80464E2,4.321899E1,2.790903E1,4.2826534E1,1.2752834E2,1.0052253E2,2.5119553E2,2.7025247E2,6.125764E2,2.3454718E2,6.132978E2,6.442276E2,1.6687573E3,1.0071363E2,3.1700531E1,2.2212949E2,1.45698E2,1.03997765E2,2.752087E2,2.9251602E2,7.8390906E2,4.8934937E1,1.3001776E2,2.748682E1,8.5236855E1,1.520431E2,7.552373E1,1.560962E2,4.6961896E2,9.571255E0,2.3575846E1,2.718619E1,7.3440155E1],"tree_param":{"num_deleted":"0","num_feature":"20","num_nodes":"121","size_leaf_vector":"1"}},{"base_weights":[8.647201E-3,-4.809653E-1,5.5073535E-1,-7.4416274E-1,-1.2834315E-1,4.533338E-1,9.3576366E-1,-9.1388226E-1,-1.8997711E-1,-2.6356384E-1,3.7252605E-1,3.4418145E-1,7.007143E-1,8.407861E-1,1.1612619E0,-1.1223462E0,-5.2171713E-1,-2.9808795E-1,4.141845E-2,-3.847865E-1,-1.6261977E-3,2.6513204E-1,6.203942E-1,1.4447111E-1,4.230282E-1,5.245894E-1,7.6756954E-1,7.186889E-1,8.876402E-1,1.0693114E0,5.9669744E-2,-1.2417727E0,-1.0654622E0,-7.350426E-1,-4.2516214E-1,-5.0499094E-1,-2.143718E-1,-1.14105135E-1,2.7561194E-1,-4.9594444E-1,-1.997351E-1,-2.2999257E-1,8.9765765E-2,2.328344E-2,3.5583085E-1,3.1876615E-1,7.452068E-1,-1.1849401E-1,2.4683128E-1,2.2031017E-1,4.9899298E-1,3.223864E-1,6.045133E-1,5.8570415E-1,8.3181494E-1,6.016102E-1,8.8710785E-1,7.587151E-1,9.333965E-1,8.705773E-1,1.1257577E0,-6.622016E-2,-5.43168E-2,-5.675107E-2,-4.6648063E-2,-4.2910438E-2,-2.5141103E-2,-3.3571523E-2,-1.5687581E-2,-3.6878813E-2,-5.8927718E-3,-2.1489954E-2,-5.9316657E-3,-2.1640897E-2,1.0583767E-3,-3.4102113E-3,2.0719456E-2,-3.0410944E-2,-1.4774761E-2,-5.4634225E-2,-8.069019E-3,-2.5621412E-2,-5.628138E-3,-9.247231E-3,9.91894E-3,-1.9674666E-2,8.635122E-3,3.9229374E-3,2.3289597E-2,-4.3527796E-3,2.5592301E-2,3.0418996E-2,4.8407644E-2,-2.129658E-2,2.1499717E-4,5.997676E-4,1.7230665E-2,7.94634E-5,1.55452E-2,1.3995871E-2,2.9087355E-2,-4.1333637E-3,2.3319459E-2,1.9716503E-2,3.3877887E-2,1.7684393E-2,3.4126293E-2,3.3348583E-2,4.4611465E-2,3.8590394E-2,1.9539058E-2,-1.6940713E-3,4.568852E-2,2.8277492E-2,4.1114997E-2,3.939803E-2,4.9026668E-2,2.1108115E-2,5.15166E-2,4.6115275E-2,5.938936E-2],"categories":[],"categories_nodes":[],"categories_segments":[],"categories_sizes":[],"default_left":[0,0,0,0,0,0,0,0,0,0,0,0,0,0,0,0,0,0,0,0,0,0,0,0,0,0,0,0,0,0,0,0,0,0,0,0,0,0,0,0,0,0,0,0,0,0,0,0,0,0,0,0,0,0,0,0,0,0,0,0,0,0,0,0,0,0,0,0,0,0,0,0,0,0,0,0,0,0,0,0,0,0,0,0,0,0,0,0,0,0,0,0,0,0,0,0,0,0,0,0,0,0,0,0,0,0,0,0,0,0,0,0,0,0,0,0,0,0,0,0,0],"id":11,"left_children":[1,3,5,7,9,11,13,15,17,19,21,23,25,27,29,31,33,35,37,39,41,43,45,47,49,51,53,55,57,59,-1,61,63,65,67,69,71,73,75,77,79,81,83,85,87,89,91,93,95,97,99,101,103,105,107,109,111,113,115,117,119,-1,-1,-1,-1,-1,-1,-1,-1,-1,-1,-1,-1,-1,-1,-1,-1,-1,-1,-1,-1,-1,-1,-1,-1,-1,-1,-1,-1,-1,-1,-1,-1,-1,-1,-1,-1,-1,-1,-1,-1,-1,-1,-1,-1,-1,-1,-1,-1,-1,-1,-1,-1,-1,-1,-1,-1,-1,-1,-1,-1],"loss_changes":[4.4070825E3,8.096279E2,2.9509497E2,4.6968872E2,2.5272644E2,1.696294E2,3.3077637E1,3.12042E2,2.934327E1,9.327933E1,2.0954193E1,6.870355E1,2.2264221E1,5.783142E0,1.0839844E-1,1.56328125E1,2.7064148E1,1.3735405E1,1.3662019E1,4.121109E1,1.94393E1,1.217181E1,8.7631E0,3.3342186E1,4.8095947E1,8.415955E0,1.5790955E1,5.707672E0,4.05188E0,4.8912048E-1,0E0,8.82666E0,1.4588623E1,1.1374237E1,2.4958618E1,2.0576931E1,1.172043E1,9.735323E0,7.1680393E0,2.8041016E1,2.5692375E1,8.771518E0,1.9884659E1,9.565707E0,1.2278107E1,5.664454E0,4.5467453E0,1.3118222E1,2.0459545E1,1.6942753E1,4.110486E1,8.967898E0,5.5781555E0,8.004417E0,9.634094E0,6.510002E0,3.1666489E0,2.1965637E0,3.2801514E0,1.9563904E0,1.4865875E-1,0E0,0E0,0E0,0E0,0E0,0E0,0E0,0E0,0E0,0E0,0E0,0E0,0E0,0E0,0E0,0E0,0E0,0E0,0E0,0E0,0E0,0E0,0E0,0E0,0E0,0E0,0E0,0E0,0E0,0E0,0E0,0E0,0E0,0E0,0E0,0E0,0E0,0E0,0E0,0E0,0E0,0E0,0E0,0E0,0E0,0E0,0E0,0E0,0E0,0E0,0E0,0E0,0E0,0E0,0E0,0E0,0E0,0E0,0E0,0E0],"parents":[2147483647,0,0,1,1,2,2,3,3,4,4,5,5,6,6,7,7,8,8,9,9,10,10,11,11,12,12,13,13,14,14,15,15,16,16,17,17,18,18,19,19,20,20,21,21,22,22,23,23,24,24,25,25,26,26,27,27,28,28,29,29,31,31,32,32,33,33,34,34,35,35,36,36,37,37,38,38,39,39,40,40,41,41,42,42,43,43,44,44,45,45,46,46,47,47,48,48,49,49,50,50,51,51,52,52,53,53,54,54,55,55,56,56,57,57,58,58,59,59,60,60],"right_children":[2,4,6,8,10,12,14,16,18,20,22,24,26,28,30,32,34,36,38,40,42,44,46,48,50,52,54,56,58,60,-1,62,64,66,68,70,72,74,76,78,80,82,84,86,88,90,92,94,96,98,100,102,104,106,108,110,112,114,116,118,120,-1,-1,-1,-1,-1,-1,-1,-1,-1,-1,-1,-1,-1,-1,-1,-1,-1,-1,-1,-1,-1,-1,-1,-1,-1,-1,-1,-1,-1,-1,-1,-1,-1,-1,-1,-1,-1,-1,-1,-1,-1,-1,-1,-1,-1,-1,-1,-1,-1,-1,-1,-1,-1,-1,-1,-1,-1,-1,-1,-1],"split_conditions":[2E0,1E0,1E0,1E0,1E0,1E0,1E0,1E0,1E0,1E0,1E0,1E0,1E0,1E0,1E0,1E0,1E0,1E0,2E0,2E0,1E0,1E0,1E0,1E0,1E0,1E0,1E0,2E0,1E0,1E0,5.9669744E-2,2E0,2E0,2E0,1E0,2E0,1E0,1E0,1E0,2E0,1E0,1E0,1E0,1E0,1E0,1E0,1E0,1E0,1E0,1E0,1E0,1E0,1E0,1E0,1E0,1E0,1.91E1,1E0,1E0,1E0,1E0,-6.622016E-2,-5.43168E-2,-5.675107E-2,-4.6648063E-2,-4.2910438E-2,-2.5141103E-2,-3.3571523E-2,-1.5687581E-2,-3.6878813E-2,-5.8927718E-3,-2.1489954E-2,-5.9316657E-3,-2.1640897E-2,1.0583767E-3,-3.4102113E-3,2.0719456E-2,-3.0410944E-2,-1.4774761E-2,-5.4634225E-2,-8.069019E-3,-2.5621412E-2,-5.628138E-3,-9.247231E-3,9.91894E-3,-1.9674666E-2,8.635122E-3,3.9229374E-3,2.3289597E-2,-4.3527796E-3,2.5592301E-2,3.0418996E-2,4.8407644E-2,-2.129658E-2,2.1499717E-4,5.997676E-4,1.7230665E-2,7.94634E-5,1.55452E-2,1.3995871E-2,2.9087355E-2,-4.1333637E-3,2.3319459E-2,1.9716503E-2,3.3877887E-2,1.7684393E-2,3.4126293E-2,3.3348583E-2,4.4611465E-2,3.8590394E-2,1.9539058E-2,-1.6940713E-3,4.568852E-2,2.8277492E-2,4.1114997E-2,3.939803E-2,4.9026668E-2,2.1108115E-2,5.15166E-2,4.6115275E-2,5.938936E-2],"split_indices":[0,0,2,2,2,1,1,1,1,1,1,14,13,7,11,12,13,12,18,7,6,12,18,15,18,8,14,14,13,15,0,14,7,6,7,15,13,7,6,15,4,13,7,7,8,17,10,13,7,7,6,6,14,18,17,19,3,8,17,14,7,0,0,0,0,0,0,0,0,0,0,0,0,0,0,0,0,0,0,0,0,0,0,0,0,0,0,0,0,0,0,0,0,0,0,0,0,0,0,0,0,0,0,0,0,0,0,0,0,0,0,0,0,0,0,0,0,0,0,0,0],"split_type":[0,0,0,0,0,0,0,0,0,0,0,0,0,0,0,0,0,0,0,0,0,0,0,0,0,0,0,0,0,0,0,0,0,0,0,0,0,0,0,0,0,0,0,0,0,0,0,0,0,0,0,0,0,0,0,0,0,0,0,0,0,0,0,0,0,0,0,0,0,0,0,0,0,0,0,0,0,0,0,0,0,0,0,0,0,0,0,0,0,0,0,0,0,0,0,0,0,0,0,0,0,0,0,0,0,0,0,0,0,0,0,0,0,0,0,0,0,0,0,0,0],"sum_hessian":[1.6602617E4,8.7236E3,7.8790176E3,4.994552E3,3.7290479E3,6.289998E3,1.5890193E3,3.8230825E3,1.1714694E3,2.9366958E3,7.9235205E2,4.365977E3,1.924021E3,1.1214181E3,4.676012E2,2.4949666E3,1.328116E3,7.982356E2,3.732337E2,2.0072759E3,9.294199E2,5.542719E2,2.3808017E2,1.23661E3,3.1293672E3,5.3182263E2,1.3921984E3,3.155265E2,8.058916E2,1.2996799E2,3.3763324E2,7.9824457E2,1.696722E3,4.1176447E2,9.163515E2,2.2849127E2,5.697443E2,2.2459624E2,1.4863745E2,1.2529594E3,7.5431647E2,2.6520938E2,6.642106E2,1.5151459E2,4.0275732E2,7.072258E1,1.673576E2,3.4644052E2,8.901695E2,8.54082E2,2.2752852E3,1.5208624E2,3.797364E2,3.6606415E2,1.0261342E3,1.888305E2,1.2669599E2,2.1570193E2,5.9018964E2,3.2381905E1,9.7586075E1,5.162722E2,2.8197235E2,1.1076644E3,5.8905756E2,2.6729803E2,1.4446643E2,2.838613E2,6.324902E2,1.4217151E2,8.6319756E1,1.7422356E2,3.9552078E2,6.626685E1,1.5832939E2,4.2889236E1,1.0574822E2,8.0181647E2,4.5114288E2,2.9933598E1,7.243829E2,7.6897095E1,1.883123E2,1.8800206E2,4.762085E2,3.9553604E1,1.11960976E2,1.1482632E2,2.87931E2,2.297728E1,4.7745296E1,1.06019775E2,6.1337822E1,9.817427E1,2.4826627E2,2.6201938E2,6.2815015E2,2.5044638E2,6.036356E2,6.250277E2,1.6502576E3,3.999986E1,1.12086395E2,9.958422E1,2.8015216E2,1.09152466E2,2.5691168E2,2.7843918E2,7.4769495E2,1.03011086E2,8.581942E1,3.5570276E0,1.2313897E2,5.586955E1,1.598324E2,1.4879968E2,4.4138998E2,9.46295E0,2.2918957E1,2.6508625E1,7.107745E1],"tree_param":{"num_deleted":"0","num_feature":"20","num_nodes":"121","size_leaf_vector":"1"}},{"base_weights":[8.379402E-3,-4.5835668E-1,5.301021E-1,-7.104006E-1,-1.2197679E-1,4.3498132E-1,9.1167545E-1,-8.738956E-1,-1.8035042E-1,-2.5013432E-1,3.5681435E-1,3.292037E-1,6.770901E-1,8.1624734E-1,1.1408758E0,-1.0774721E0,-4.9518916E-1,-2.8271812E-1,3.9412495E-2,-3.649214E-1,-1.5640858E-3,2.5312802E-1,5.983923E-1,1.3429745E-1,4.0778315E-1,4.9521983E-1,7.396504E-1,6.913753E-1,8.6375403E-1,1.0479817E0,5.86739E-2,-1.1957443E0,-1.0213908E0,-7.1746504E-1,-4.0346953E-1,-4.795145E-1,-1.956808E-1,-2.6479554E-1,1.5507355E-1,-5.8161926E-1,-2.7199185E-1,-2.1994485E-1,8.8201575E-2,8.338321E-3,3.3923036E-1,3.0499208E-1,7.2122186E-1,-1.4106503E-1,2.3641586E-1,1.9643772E-1,4.859017E-1,3.8771015E-1,6.633595E-1,5.6405807E-1,8.0780745E-1,4.4559157E-1,7.7873594E-1,7.214031E-1,9.1656995E-1,8.4885556E-1,1.1049933E0,-6.3903324E-2,-5.2095324E-2,-5.4475766E-2,-4.4606578E-2,-4.2713486E-2,-2.371361E-2,-3.296617E-2,-1.5038431E-2,-3.9907508E-2,-1.757293E-2,-4.4968203E-3,-2.1792842E-2,-8.00444E-3,-5.8980215E-2,-8.086426E-3,1.598878E-2,-4.303043E-2,-2.2900848E-2,-2.6066903E-2,-8.543157E-3,-2.0525577E-3,-1.9815521E-2,-7.291738E-3,8.822839E-3,-9.1927E-3,1.6640909E-2,5.513196E-3,2.1190027E-2,4.5086756E-2,8.529468E-3,2.8787598E-2,4.6799492E-2,-2.304429E-2,-1.0920897E-3,5.876545E-3,2.1566449E-2,-2.5511158E-3,1.4536868E-2,1.4420797E-2,2.8158804E-2,1.1169112E-2,3.6355663E-2,2.511228E-2,4.455212E-2,1.5371534E-2,3.274634E-2,3.0827394E-2,4.3757167E-2,4.4900225E-3,2.9344434E-2,2.5809348E-2,4.297459E-2,3.206661E-2,4.201497E-2,3.7935384E-2,4.843982E-2,2.036298E-2,5.04462E-2,4.5008477E-2,5.8399238E-2],"categories":[],"categories_nodes":[],"categories_segments":[],"categories_sizes":[],"default_left":[0,0,0,0,0,0,0,0,0,0,0,0,0,0,0,0,0,0,0,0,0,0,0,0,0,0,0,0,0,0,0,0,0,0,0,0,0,0,0,0,0,0,0,0,0,0,0,0,0,0,0,0,0,0,0,0,0,0,0,0,0,0,0,0,0,0,0,0,0,0,0,0,0,0,0,0,0,0,0,0,0,0,0,0,0,0,0,0,0,0,0,0,0,0,0,0,0,0,0,0,0,0,0,0,0,0,0,0,0,0,0,0,0,0,0,0,0,0,0,0,0],"id":12,"left_children":[1,3,5,7,9,11,13,15,17,19,21,23,25,27,29,31,33,35,37,39,41,43,45,47,49,51,53,55,57,59,-1,61,63,65,67,69,71,73,75,77,79,81,83,85,87,89,91,93,95,97,99,101,103,105,107,109,111,113,115,117,119,-1,-1,-1,-1,-1,-1,-1,-1,-1,-1,-1,-1,-1,-1,-1,-1,-1,-1,-1,-1,-1,-1,-1,-1,-1,-1,-1,-1,-1,-1,-1,-1,-1,-1,-1,-1,-1,-1,-1,-1,-1,-1,-1,-1,-1,-1,-1,-1,-1,-1,-1,-1,-1,-1,-1,-1,-1,-1,-1,-1],"loss_changes":[4.0133967E3,7.3745874E2,2.8206982E2,4.307915E2,2.2880682E2,1.5936096E2,3.3014526E1,2.924524E2,2.6411999E1,8.391301E1,1.9573105E1,6.6394104E1,2.1180542E1,5.9240723E0,1.4428711E-1,1.5167236E1,2.683551E1,1.3621689E1,1.3193623E1,4.0356537E1,1.8251768E1,1.1646652E1,8.276016E0,3.5129158E1,5.0945923E1,8.559158E0,1.6383606E1,6.265686E0,5.2957764E0,5.062866E-1,0E0,8.658813E0,1.3847168E1,1.24823E1,2.4610306E1,9.7103615E0,1.4104048E1,9.710029E0,1.4216383E1,2.0398056E1,3.5463898E1,8.541076E0,1.36549015E1,9.094263E0,7.870392E0,5.5649023E0,4.630028E0,1.2888098E1,2.1055134E1,1.9523277E1,3.427368E1,1.6564266E1,6.478775E0,9.050613E0,1.2484436E1,4.124756E0,4.3453827E0,1.547081E0,3.999054E0,1.8956318E0,1.8191528E-1,0E0,0E0,0E0,0E0,0E0,0E0,0E0,0E0,0E0,0E0,0E0,0E0,0E0,0E0,0E0,0E0,0E0,0E0,0E0,0E0,0E0,0E0,0E0,0E0,0E0,0E0,0E0,0E0,0E0,0E0,0E0,0E0,0E0,0E0,0E0,0E0,0E0,0E0,0E0,0E0,0E0,0E0,0E0,0E0,0E0,0E0,0E0,0E0,0E0,0E0,0E0,0E0,0E0,0E0,0E0,0E0,0E0,0E0,0E0,0E0],"parents":[2147483647,0,0,1,1,2,2,3,3,4,4,5,5,6,6,7,7,8,8,9,9,10,10,11,11,12,12,13,13,14,14,15,15,16,16,17,17,18,18,19,19,20,20,21,21,22,22,23,23,24,24,25,25,26,26,27,27,28,28,29,29,31,31,32,32,33,33,34,34,35,35,36,36,37,37,38,38,39,39,40,40,41,41,42,42,43,43,44,44,45,45,46,46,47,47,48,48,49,49,50,50,51,51,52,52,53,53,54,54,55,55,56,56,57,57,58,58,59,59,60,60],"right_children":[2,4,6,8,10,12,14,16,18,20,22,24,26,28,30,32,34,36,38,40,42,44,46,48,50,52,54,56,58,60,-1,62,64,66,68,70,72,74,76,78,80,82,84,86,88,90,92,94,96,98,100,102,104,106,108,110,112,114,116,118,120,-1,-1,-1,-1,-1,-1,-1,-1,-1,-1,-1,-1,-1,-1,-1,-1,-1,-1,-1,-1,-1,-1,-1,-1,-1,-1,-1,-1,-1,-1,-1,-1,-1,-1,-1,-1,-1,-1,-1,-1,-1,-1,-1,-1,-1,-1,-1,-1,-1,-1,-1,-1,-1,-1,-1,-1,-1,-1,-1,-1],"split_conditions":[2E0,1E0,1E0,1E0,1E0,1E0,1E0,1E0,1E0,1E0,1E0,1E0,1E0,1E0,1E0,1E0,1E0,1E0,1E0,1E0,1E0,1E0,1E0,1E0,1E0,2E0,1E0,1E0,1E0,1E0,5.86739E-2,2E0,2E0,2E0,1E0,1E0,2.94E1,3.31E1,1E0,1E0,1E0,1E0,1E0,2E0,1E0,2.1E1,2E0,1E0,2E0,1E0,1E0,1E0,2E0,1E0,1E0,1E0,1E0,2E0,1E0,1E0,1E0,-6.3903324E-2,-5.2095324E-2,-5.4475766E-2,-4.4606578E-2,-4.2713486E-2,-2.371361E-2,-3.296617E-2,-1.5038431E-2,-3.9907508E-2,-1.757293E-2,-4.4968203E-3,-2.1792842E-2,-8.00444E-3,-5.8980215E-2,-8.086426E-3,1.598878E-2,-4.303043E-2,-2.2900848E-2,-2.6066903E-2,-8.543157E-3,-2.0525577E-3,-1.9815521E-2,-7.291738E-3,8.822839E-3,-9.1927E-3,1.6640909E-2,5.513196E-3,2.1190027E-2,4.5086756E-2,8.529468E-3,2.8787598E-2,4.6799492E-2,-2.304429E-2,-1.0920897E-3,5.876545E-3,2.1566449E-2,-2.5511158E-3,1.4536868E-2,1.4420797E-2,2.8158804E-2,1.1169112E-2,3.6355663E-2,2.511228E-2,4.455212E-2,1.5371534E-2,3.274634E-2,3.0827394E-2,4.3757167E-2,4.4900225E-3,2.9344434E-2,2.5809348E-2,4.297459E-2,3.206661E-2,4.201497E-2,3.7935384E-2,4.843982E-2,2.036298E-2,5.04462E-2,4.5008477E-2,5.8399238E-2],"split_indices":[0,0,2,2,2,1,1,1,1,1,1,12,7,15,11,12,12,18,12,14,14,13,18,15,17,15,8,12,13,15,0,14,7,13,15,14,3,3,17,15,12,19,12,8,14,3,8,6,14,8,18,10,18,18,14,14,8,7,17,14,7,0,0,0,0,0,0,0,0,0,0,0,0,0,0,0,0,0,0,0,0,0,0,0,0,0,0,0,0,0,0,0,0,0,0,0,0,0,0,0,0,0,0,0,0,0,0,0,0,0,0,0,0,0,0,0,0,0,0,0,0],"split_type":[0,0,0,0,0,0,0,0,0,0,0,0,0,0,0,0,0,0,0,0,0,0,0,0,0,0,0,0,0,0,0,0,0,0,0,0,0,0,0,0,0,0,0,0,0,0,0,0,0,0,0,0,0,0,0,0,0,0,0,0,0,0,0,0,0,0,0,0,0,0,0,0,0,0,0,0,0,0,0,0,0,0,0,0,0,0,0,0,0,0,0,0,0,0,0,0,0,0,0,0,0,0,0,0,0,0,0,0,0,0,0,0,0,0,0,0,0,0,0,0,0],"sum_hessian":[1.6479664E4,8.698267E3,7.781397E3,4.9718384E3,3.7264285E3,6.2303896E3,1.5510073E3,3.7992908E3,1.1725475E3,2.9399678E3,7.864606E2,4.337633E3,1.8927571E3,1.0982922E3,4.5271506E2,2.4697908E3,1.3295E3,7.9973615E2,3.7281134E2,2.0108917E3,9.290761E2,5.517114E2,2.3474916E2,1.2470916E3,3.090541E3,4.867201E2,1.4060371E3,3.0697003E2,7.913222E2,1.2621948E2,3.2649557E2,7.8787897E2,1.6819119E3,3.8636066E2,9.431393E2,2.4385555E2,5.558806E2,1.023429E2,2.7046844E2,6.019575E2,1.4089342E3,2.7022528E2,6.588508E2,1.4384775E2,4.0786365E2,7.030241E1,1.6444676E2,3.3726758E2,9.0982404E2,8.350024E2,2.2555386E3,2.9890445E2,1.8781563E2,3.957488E2,1.01028827E3,8.209666E1,2.2487337E2,2.1811414E2,5.7320807E2,3.1630774E1,9.458871E1,5.0847452E2,2.7940448E2,1.0965562E3,5.853557E2,2.4565706E2,1.407036E2,2.685912E2,6.745481E2,6.840752E1,1.7544804E2,3.869078E2,1.689728E2,9.288636E1,9.456544E0,9.2521904E1,1.7794653E2,1.8298032E2,4.1897717E2,4.0534567E2,1.00358856E3,1.3476314E2,1.3546214E2,1.8023877E2,4.7861206E2,9.0611275E1,5.3236473E1,1.10634384E2,2.9722928E2,1.187383E1,5.8428574E1,1.00234924E2,6.4211845E1,9.0807465E1,2.4646011E2,5.661254E2,3.436986E2,2.3052371E2,6.0447864E2,6.3568567E2,1.6198529E3,2.0251262E2,9.639184E1,1.1186391E2,7.595172E1,1.0463276E2,2.9111603E2,2.6571436E2,7.445739E2,2.3800844E1,5.8295815E1,5.4635952E1,1.7023741E2,1.3415872E2,8.395542E1,1.46355E2,4.268531E2,9.358069E0,2.2272703E1,2.5844072E1,6.874464E1],"tree_param":{"num_deleted":"0","num_feature":"20","num_nodes":"121","size_leaf_vector":"1"}},{"base_weights":[8.118752E-3,-4.3698943E-1,5.101832E-1,-6.786006E-1,-1.1592546E-1,4.173134E-1,8.8834935E-1,-8.3633566E-1,-1.7127368E-1,-2.3743176E-1,3.4180862E-1,3.1484312E-1,6.54157E-1,7.9245347E-1,1.1214685E0,-1.0354893E0,-4.7021025E-1,-3.9811954E-1,-7.594358E-2,-3.4620407E-1,-1.4953607E-3,2.4169223E-1,5.7726264E-1,1.19036525E-1,3.9177752E-1,4.7883335E-1,7.212327E-1,6.594701E-1,8.3741266E-1,1.027466E0,1.154613E0,-1.1529016E0,-9.8008287E-1,-6.832136E-1,-3.7708154E-1,-2.6556292E-1,-6.490976E-1,-3.6399353E-1,4.0350117E-2,-5.589037E-1,-2.541819E-1,-2.1845622E-1,8.8066936E-2,1.3503164E-2,3.3283326E-1,2.9223362E-1,6.9800144E-1,-8.728199E-2,2.01779E-1,1.885193E-1,4.6800834E-1,2.8553018E-1,5.561697E-1,5.4719335E-1,7.87161E-1,5.5835384E-1,8.1451094E-1,7.1068984E-1,8.8291734E-1,8.2776564E-1,1.085129E0,5.178241E-2,5.943072E-2,-6.1757453E-2,-5.0014175E-2,-5.2465767E-2,-4.2585194E-2,-4.558223E-2,-2.9068524E-2,-3.31437E-2,-1.265744E-2,-3.1089945E-2,-5.1287487E-3,-4.5634102E-2,-1.1344992E-2,-2.6390662E-2,-4.8414166E-3,-4.948545E-3,1.6518686E-2,-3.3285312E-2,-1.7471222E-2,-2.6370335E-2,-7.0714965E-3,-2.5604486E-2,-5.29296E-3,-8.486724E-3,9.558967E-3,-1.9763557E-3,4.431226E-2,4.1790367E-3,2.1344898E-2,3.941826E-3,3.2957193E-2,1.9741591E-2,3.9865445E-2,-1.6139444E-2,6.900333E-4,-3.5774565E-4,1.4437067E-2,-3.4509122E-3,1.4124759E-2,1.3128932E-2,2.7207082E-2,-5.2745487E-3,2.1336589E-2,1.7707458E-2,3.136562E-2,2.1693898E-2,3.661225E-2,3.0452028E-2,4.2549755E-2,1.1240311E-2,3.4162015E-2,3.3810843E-2,5.0922412E-2,3.9070603E-2,2.8042203E-2,3.6821317E-2,4.6531927E-2,1.9640522E-2,4.9413066E-2,4.3933462E-2,5.7460994E-2],"categories":[],"categories_nodes":[],"categories_segments":[],"categories_sizes":[],"default_left":[0,0,0,0,0,0,0,0,0,0,0,0,0,0,0,0,0,0,0,0,0,0,0,0,0,0,0,0,0,0,0,0,0,0,0,0,0,0,0,0,0,0,0,0,0,0,0,0,0,0,0,0,0,0,0,0,0,0,0,0,0,0,0,0,0,0,0,0,0,0,0,0,0,0,0,0,0,0,0,0,0,0,0,0,0,0,0,0,0,0,0,0,0,0,0,0,0,0,0,0,0,0,0,0,0,0,0,0,0,0,0,0,0,0,0,0,0,0,0,0,0,0,0],"id":13,"left_children":[1,3,5,7,9,11,13,15,17,19,21,23,25,27,29,31,33,35,37,39,41,43,45,47,49,51,53,55,57,59,61,63,65,67,69,71,73,75,77,79,81,83,85,87,89,91,93,95,97,99,101,103,105,107,109,111,113,115,117,119,121,-1,-1,-1,-1,-1,-1,-1,-1,-1,-1,-1,-1,-1,-1,-1,-1,-1,-1,-1,-1,-1,-1,-1,-1,-1,-1,-1,-1,-1,-1,-1,-1,-1,-1,-1,-1,-1,-1,-1,-1,-1,-1,-1,-1,-1,-1,-1,-1,-1,-1,-1,-1,-1,-1,-1,-1,-1,-1,-1,-1,-1,-1],"loss_changes":[3.655516E3,6.72531E2,2.6960022E2,3.9575757E2,2.0722235E2,1.496178E2,3.2972656E1,2.746726E2,2.5371433E1,7.554509E1,1.828659E1,6.489499E1,2.1567871E1,5.8847046E0,1.8164062E-1,1.4765137E1,2.6151825E1,1.1382923E1,2.7761402E1,3.929428E1,1.8088398E1,1.1437809E1,7.796875E0,2.0801395E1,4.785968E1,7.5939636E0,1.5010803E1,3.883522E0,3.9908447E0,5.243225E-1,4.940796E-2,8.526245E0,1.39198E1,8.863525E0,3.272107E1,1.3231268E1,1.3074928E1,1.0379776E1,2.391173E1,1.3361588E1,4.3307564E1,8.938382E0,1.7547672E1,7.3508296E0,9.181091E0,5.4992123E0,4.5802765E0,8.317234E0,1.5796276E1,2.0487448E1,3.5044098E1,8.340605E0,5.0863037E0,7.5041656E0,1.0553589E1,6.955826E0,2.3306656E0,1.8585815E0,3.4053955E0,1.8383522E0,2.1607971E-1,0E0,0E0,0E0,0E0,0E0,0E0,0E0,0E0,0E0,0E0,0E0,0E0,0E0,0E0,0E0,0E0,0E0,0E0,0E0,0E0,0E0,0E0,0E0,0E0,0E0,0E0,0E0,0E0,0E0,0E0,0E0,0E0,0E0,0E0,0E0,0E0,0E0,0E0,0E0,0E0,0E0,0E0,0E0,0E0,0E0,0E0,0E0,0E0,0E0,0E0,0E0,0E0,0E0,0E0,0E0,0E0,0E0,0E0,0E0,0E0,0E0,0E0],"parents":[2147483647,0,0,1,1,2,2,3,3,4,4,5,5,6,6,7,7,8,8,9,9,10,10,11,11,12,12,13,13,14,14,15,15,16,16,17,17,18,18,19,19,20,20,21,21,22,22,23,23,24,24,25,25,26,26,27,27,28,28,29,29,30,30,31,31,32,32,33,33,34,34,35,35,36,36,37,37,38,38,39,39,40,40,41,41,42,42,43,43,44,44,45,45,46,46,47,47,48,48,49,49,50,50,51,51,52,52,53,53,54,54,55,55,56,56,57,57,58,58,59,59,60,60],"right_children":[2,4,6,8,10,12,14,16,18,20,22,24,26,28,30,32,34,36,38,40,42,44,46,48,50,52,54,56,58,60,62,64,66,68,70,72,74,76,78,80,82,84,86,88,90,92,94,96,98,100,102,104,106,108,110,112,114,116,118,120,122,-1,-1,-1,-1,-1,-1,-1,-1,-1,-1,-1,-1,-1,-1,-1,-1,-1,-1,-1,-1,-1,-1,-1,-1,-1,-1,-1,-1,-1,-1,-1,-1,-1,-1,-1,-1,-1,-1,-1,-1,-1,-1,-1,-1,-1,-1,-1,-1,-1,-1,-1,-1,-1,-1,-1,-1,-1,-1,-1,-1,-1,-1],"split_conditions":[2E0,1E0,1E0,1E0,1E0,1E0,1E0,1E0,1E0,1E0,1E0,1E0,1E0,1E0,1E0,1E0,1E0,3E0,1E0,1E0,1E0,1E0,1E0,1E0,1E0,1E0,1E0,2E0,1E0,1E0,1E0,2E0,2E0,1E0,1E0,1E0,2E0,2E0,1E0,2E0,1E0,1E0,1E0,1.9E1,1E0,2E0,1E0,1E0,1E0,1E0,1E0,1E0,1E0,2E0,1E0,1E0,2E0,1.3E1,1E0,1E0,1E0,5.178241E-2,5.943072E-2,-6.1757453E-2,-5.0014175E-2,-5.2465767E-2,-4.2585194E-2,-4.558223E-2,-2.9068524E-2,-3.31437E-2,-1.265744E-2,-3.1089945E-2,-5.1287487E-3,-4.5634102E-2,-1.1344992E-2,-2.6390662E-2,-4.8414166E-3,-4.948545E-3,1.6518686E-2,-3.3285312E-2,-1.7471222E-2,-2.6370335E-2,-7.0714965E-3,-2.5604486E-2,-5.29296E-3,-8.486724E-3,9.558967E-3,-1.9763557E-3,4.431226E-2,4.1790367E-3,2.1344898E-2,3.941826E-3,3.2957193E-2,1.9741591E-2,3.9865445E-2,-1.6139444E-2,6.900333E-4,-3.5774565E-4,1.4437067E-2,-3.4509122E-3,1.4124759E-2,1.3128932E-2,2.7207082E-2,-5.2745487E-3,2.1336589E-2,1.7707458E-2,3.136562E-2,2.1693898E-2,3.661225E-2,3.0452028E-2,4.2549755E-2,1.1240311E-2,3.4162015E-2,3.3810843E-2,5.0922412E-2,3.9070603E-2,2.8042203E-2,3.6821317E-2,4.6531927E-2,1.9640522E-2,4.9413066E-2,4.3933462E-2,5.7460994E-2],"split_indices":[0,0,2,2,2,1,1,1,8,1,1,8,13,14,11,12,14,5,6,6,17,17,18,14,18,8,17,18,13,15,13,14,6,17,7,15,14,17,1,15,17,12,6,4,6,6,14,12,6,12,6,6,14,7,6,8,7,4,17,14,7,0,0,0,0,0,0,0,0,0,0,0,0,0,0,0,0,0,0,0,0,0,0,0,0,0,0,0,0,0,0,0,0,0,0,0,0,0,0,0,0,0,0,0,0,0,0,0,0,0,0,0,0,0,0,0,0,0,0,0,0,0,0],"split_type":[0,0,0,0,0,0,0,0,0,0,0,0,0,0,0,0,0,0,0,0,0,0,0,0,0,0,0,0,0,0,0,0,0,0,0,0,0,0,0,0,0,0,0,0,0,0,0,0,0,0,0,0,0,0,0,0,0,0,0,0,0,0,0,0,0,0,0,0,0,0,0,0,0,0,0,0,0,0,0,0,0,0,0,0,0,0,0,0,0,0,0,0,0,0,0,0,0,0,0,0,0,0,0,0,0,0,0,0,0,0,0,0,0,0,0,0,0,0,0,0,0,0,0],"sum_hessian":[1.6355756E4,8.669706E3,7.6860493E3,4.9463223E3,3.723384E3,6.1723506E3,1.5136985E3,3.7726914E3,1.173631E3,2.9427163E3,7.806678E2,4.309972E3,1.8623784E3,1.0756276E3,4.380709E2,2.4423494E3,1.330342E3,3.4633118E2,8.2729987E2,2.0138268E3,9.288895E2,5.491799E2,2.3148795E2,1.2164692E3,3.093503E3,5.1760156E2,1.3447769E3,2.757283E2,7.998993E2,1.2253734E2,3.1553357E2,7.7667615E2,1.6656732E3,4.0277698E2,9.2756506E2,2.2797957E2,1.183516E2,2.3732799E2,5.8997186E2,6.066184E2,1.4072084E3,2.709896E2,6.578999E2,1.5707089E2,3.9210898E2,6.989846E1,1.6158948E2,3.4819342E2,8.682759E2,8.4470233E2,2.2488005E3,1.4924756E2,3.68354E2,3.720167E2,9.7276025E2,1.6967143E2,1.0605688E2,2.1573415E2,5.8416516E2,3.0895155E1,9.164218E1,7.712962E1,2.3840393E2,5.000835E2,2.7659268E2,1.0774502E3,5.882229E2,1.2174811E2,2.8102887E2,2.792524E2,6.483126E2,7.06807E1,1.5729886E2,7.2147255E1,4.6204346E1,1.4651357E2,9.081442E1,3.989728E2,1.9099908E2,4.0033203E2,2.0628636E2,4.1000095E2,9.9720746E2,7.412817E1,1.9686142E2,1.8777615E2,4.7012375E2,1.4897356E2,8.097345E0,1.0795044E2,2.8415854E2,4.4962738E1,2.4935722E1,4.1098427E1,1.2049105E2,1.0390878E2,2.4428462E2,2.5545145E2,6.128244E2,2.258992E2,6.1880316E2,6.0926794E2,1.6395326E3,3.9663284E1,1.09584274E2,9.749118E1,2.7086282E2,2.3280464E2,1.3921204E2,2.594213E2,7.133389E2,4.6984642E1,1.2268678E2,6.577159E1,4.028529E1,1.4369852E2,7.203563E1,1.4757657E2,4.365886E2,9.256591E0,2.1638563E1,2.5193756E1,6.6448425E1],"tree_param":{"num_deleted":"0","num_feature":"20","num_nodes":"123","size_leaf_vector":"1"}},{"base_weights":[7.866667E-3,-4.167747E-1,4.9097767E-1,-6.4857274E-1,-1.1019117E-1,4.0032402E-1,8.657478E-1,-8.0088997E-1,-1.6268484E-1,-2.2543603E-1,3.2738867E-1,3.010781E-1,6.3199526E-1,7.6937187E-1,1.1029718E0,-9.95979E-1,-4.466361E-1,-3.899805E-1,-7.261428E-2,-3.285681E-1,-1.4388086E-3,2.3079446E-1,5.567183E-1,1.0629795E-1,3.79048E-1,4.6037632E-1,6.980951E-1,6.428866E-1,8.1778973E-1,1.0076718E0,1.1367393E0,-1.1149124E0,-9.3979377E-1,-6.6989845E-1,-3.6123472E-1,-5.1984024E-1,-1.5030676E-1,-1.9781518E-1,1.280628E-1,-5.452057E-1,-2.4093382E-1,-2.1053049E-1,8.6513355E-2,-1.3651999E-3,3.1849682E-1,2.7972057E-1,6.7548954E-1,-1.7370027E-1,2.1254161E-1,1.8834311E-1,4.5407397E-1,2.5162572E-1,5.3277946E-1,5.1664686E-1,7.6298934E-1,3.9800364E-1,7.308404E-1,6.7530894E-1,8.712989E-1,8.0724967E-1,1.0660623E0,5.0799776E-2,5.85709E-2,-5.9338827E-2,-4.8608147E-2,-5.028511E-2,-4.0711552E-2,-4.22255E-3,-3.7020165E-2,-3.1568505E-2,-1.2536283E-2,-3.347257E-2,-1.0807395E-2,-2.9793575E-2,4.447901E-3,-2.2564743E-2,-4.6476973E-3,-1.6421948E-3,2.0059217E-2,-4.084405E-2,-2.1510242E-2,-2.4249827E-2,-6.9298367E-3,3.7640107E-3,-1.8529227E-2,1.691364E-3,2.2902114E-2,-1.995005E-2,7.134375E-3,2.6891197E-3,2.1223469E-2,2.736496E-3,3.0888963E-2,2.6824195E-2,4.5257527E-2,-2.3790544E-2,-2.8187293E-3,-1.6332222E-3,1.5432573E-2,-1.0925018E-3,1.3875419E-2,1.2202244E-2,2.663819E-2,-6.4529935E-3,2.0124223E-2,1.4090858E-2,3.1129217E-2,1.4344992E-2,3.0696226E-2,3.0021042E-2,4.125857E-2,2.7545667E-3,2.6855601E-2,2.3493636E-2,4.0610056E-2,2.9785141E-2,3.972423E-2,3.562684E-2,4.6226915E-2,1.894012E-2,4.8413098E-2,4.2887125E-2,5.656897E-2],"categories":[],"categories_nodes":[],"categories_segments":[],"categories_sizes":[],"default_left":[0,0,0,0,0,0,0,0,0,0,0,0,0,0,0,0,0,0,0,0,0,0,0,0,0,0,0,0,0,0,0,0,0,0,0,0,0,0,0,0,0,0,0,0,0,0,0,0,0,0,0,0,0,0,0,0,0,0,0,0,0,0,0,0,0,0,0,0,0,0,0,0,0,0,0,0,0,0,0,0,0,0,0,0,0,0,0,0,0,0,0,0,0,0,0,0,0,0,0,0,0,0,0,0,0,0,0,0,0,0,0,0,0,0,0,0,0,0,0,0,0,0,0],"id":14,"left_children":[1,3,5,7,9,11,13,15,17,19,21,23,25,27,29,31,33,35,37,39,41,43,45,47,49,51,53,55,57,59,61,63,65,67,69,71,73,75,77,79,81,83,85,87,89,91,93,95,97,99,101,103,105,107,109,111,113,115,117,119,121,-1,-1,-1,-1,-1,-1,-1,-1,-1,-1,-1,-1,-1,-1,-1,-1,-1,-1,-1,-1,-1,-1,-1,-1,-1,-1,-1,-1,-1,-1,-1,-1,-1,-1,-1,-1,-1,-1,-1,-1,-1,-1,-1,-1,-1,-1,-1,-1,-1,-1,-1,-1,-1,-1,-1,-1,-1,-1,-1,-1,-1,-1],"loss_changes":[3.3301018E3,6.1387E2,2.5763782E2,3.6394727E2,1.8770609E2,1.4043909E2,3.2946533E1,2.5837817E2,2.4033884E1,6.8048584E1,1.7062553E1,6.501904E1,2.0477234E1,5.9317627E0,2.2137451E-1,1.5084961E1,2.5151154E1,1.0296688E1,2.1205559E1,3.8161346E1,1.7114935E1,1.1153378E1,7.354576E0,3.6508175E1,4.368033E1,7.6156464E0,1.5168762E1,6.0968323E0,5.1972046E0,5.429306E-1,9.0270996E-2,6.7373657E0,1.2803101E1,